digraph Tree {
node [shape=box, style="filled", color="black"] ;
0 [label="Rooms <= 3.5\nmse = 460881761661.359\nsamples = 4647\nvalue = 1075587.689", fillcolor="#fcf2eb"] ;
1 [label="Rooms <= 2.5\nmse = 238516684770.778\nsamples = 3456\nvalue = 899251.082", fillcolor="#fdf5ef"] ;
0 -> 1 [labeldistance=2.5, labelangle=45, headlabel="True"] ;
2 [label="Landsize <= 89.5\nmse = 100643628319.804\nsamples = 1544\nvalue = 680694.165", fillcolor="#fdf8f4"] ;
1 -> 2 ;
3 [label="Rooms <= 1.5\nmse = 43326861076.329\nsamples = 711\nvalue = 548317.038", fillcolor="#fefaf7"] ;
2 -> 3 ;
4 [label="Landsize <= 66.5\nmse = 13165887676.134\nsamples = 195\nvalue = 392505.385", fillcolor="#fefcfa"] ;
3 -> 4 ;
5 [label="Lattitude <= -37.796\nmse = 9247602212.144\nsamples = 189\nvalue = 383207.937", fillcolor="#fefcfa"] ;
4 -> 5 ;
6 [label="Lattitude <= -37.857\nmse = 9750457155.556\nsamples = 135\nvalue = 403013.333", fillcolor="#fefcfa"] ;
5 -> 6 ;
7 [label="Longtitude <= 144.996\nmse = 4370824767.562\nsamples = 44\nvalue = 356397.727", fillcolor="#fefcfb"] ;
6 -> 7 ;
8 [label="Longtitude <= 144.974\nmse = 3238692520.776\nsamples = 19\nvalue = 402789.474", fillcolor="#fefcfa"] ;
7 -> 8 ;
9 [label="Lattitude <= -37.86\nmse = 400000000.0\nsamples = 2\nvalue = 330000.0", fillcolor="#fffdfb"] ;
8 -> 9 ;
10 [label="mse = 0.0\nsamples = 1\nvalue = 350000.0", fillcolor="#fefcfb"] ;
9 -> 10 ;
11 [label="mse = 0.0\nsamples = 1\nvalue = 310000.0", fillcolor="#fffdfc"] ;
9 -> 11 ;
12 [label="Lattitude <= -37.885\nmse = 2875993079.585\nsamples = 17\nvalue = 411352.941", fillcolor="#fefcfa"] ;
8 -> 12 ;
13 [label="Longtitude <= 144.991\nmse = 3538888888.889\nsamples = 3\nvalue = 458333.333", fillcolor="#fefbf9"] ;
12 -> 13 ;
14 [label="Lattitude <= -37.885\nmse = 100000000.0\nsamples = 2\nvalue = 500000.0", fillcolor="#fefaf8"] ;
13 -> 14 ;
15 [label="mse = 0.0\nsamples = 1\nvalue = 510000.0", fillcolor="#fefaf7"] ;
14 -> 15 ;
16 [label="mse = 0.0\nsamples = 1\nvalue = 490000.0", fillcolor="#fefaf8"] ;
14 -> 16 ;
17 [label="mse = 0.0\nsamples = 1\nvalue = 375000.0", fillcolor="#fefcfa"] ;
13 -> 17 ;
18 [label="Longtitude <= 144.991\nmse = 2159632653.061\nsamples = 14\nvalue = 401285.714", fillcolor="#fefcfa"] ;
12 -> 18 ;
19 [label="Lattitude <= -37.874\nmse = 1745207100.592\nsamples = 13\nvalue = 394846.154", fillcolor="#fefcfa"] ;
18 -> 19 ;
20 [label="Longtitude <= 144.983\nmse = 63500000.0\nsamples = 4\nvalue = 351000.0", fillcolor="#fefcfb"] ;
19 -> 20 ;
21 [label="mse = 0.0\nsamples = 1\nvalue = 360000.0", fillcolor="#fefcfb"] ;
20 -> 21 ;
22 [label="Longtitude <= 144.987\nmse = 48666666.667\nsamples = 3\nvalue = 348000.0", fillcolor="#fefcfb"] ;
20 -> 22 ;
23 [label="mse = 0.0\nsamples = 1\nvalue = 340000.0", fillcolor="#fefdfb"] ;
22 -> 23 ;
24 [label="Lattitude <= -37.881\nmse = 25000000.0\nsamples = 2\nvalue = 352000.0", fillcolor="#fefcfb"] ;
22 -> 24 ;
25 [label="mse = 0.0\nsamples = 1\nvalue = 347000.0", fillcolor="#fefcfb"] ;
24 -> 25 ;
26 [label="mse = 0.0\nsamples = 1\nvalue = 357000.0", fillcolor="#fefcfb"] ;
24 -> 26 ;
27 [label="Lattitude <= -37.873\nmse = 1258444444.444\nsamples = 9\nvalue = 414333.333", fillcolor="#fefcfa"] ;
19 -> 27 ;
28 [label="mse = 250000.0\nsamples = 2\nvalue = 450500.0", fillcolor="#fefbf9"] ;
27 -> 28 ;
29 [label="Longtitude <= 144.981\nmse = 1137428571.429\nsamples = 7\nvalue = 404000.0", fillcolor="#fefcfa"] ;
27 -> 29 ;
30 [label="Longtitude <= 144.979\nmse = 204687500.0\nsamples = 4\nvalue = 381250.0", fillcolor="#fefcfa"] ;
29 -> 30 ;
31 [label="Lattitude <= -37.861\nmse = 72222222.222\nsamples = 3\nvalue = 388333.333", fillcolor="#fefcfa"] ;
30 -> 31 ;
32 [label="Lattitude <= -37.864\nmse = 6250000.0\nsamples = 2\nvalue = 382500.0", fillcolor="#fefcfa"] ;
31 -> 32 ;
33 [label="mse = 0.0\nsamples = 1\nvalue = 380000.0", fillcolor="#fefcfa"] ;
32 -> 33 ;
34 [label="mse = 0.0\nsamples = 1\nvalue = 385000.0", fillcolor="#fefcfa"] ;
32 -> 34 ;
35 [label="mse = 0.0\nsamples = 1\nvalue = 400000.0", fillcolor="#fefcfa"] ;
31 -> 35 ;
36 [label="mse = 0.0\nsamples = 1\nvalue = 360000.0", fillcolor="#fefcfb"] ;
30 -> 36 ;
37 [label="Longtitude <= 144.986\nmse = 770888888.889\nsamples = 3\nvalue = 434333.333", fillcolor="#fefbf9"] ;
29 -> 37 ;
38 [label="Longtitude <= 144.982\nmse = 272250000.0\nsamples = 2\nvalue = 451500.0", fillcolor="#fefbf9"] ;
37 -> 38 ;
39 [label="mse = 0.0\nsamples = 1\nvalue = 468000.0", fillcolor="#fefbf8"] ;
38 -> 39 ;
40 [label="mse = 0.0\nsamples = 1\nvalue = 435000.0", fillcolor="#fefbf9"] ;
38 -> 40 ;
41 [label="mse = 0.0\nsamples = 1\nvalue = 400000.0", fillcolor="#fefcfa"] ;
37 -> 41 ;
42 [label="mse = 0.0\nsamples = 1\nvalue = 485000.0", fillcolor="#fefbf8"] ;
18 -> 42 ;
43 [label="Lattitude <= -37.89\nmse = 2352470400.0\nsamples = 25\nvalue = 321140.0", fillcolor="#fffdfc"] ;
7 -> 43 ;
44 [label="Landsize <= 58.5\nmse = 1159322500.0\nsamples = 10\nvalue = 293950.0", fillcolor="#fffdfc"] ;
43 -> 44 ;
45 [label="Longtitude <= 145.05\nmse = 953666666.667\nsamples = 9\nvalue = 288166.667", fillcolor="#fffdfc"] ;
44 -> 45 ;
46 [label="Lattitude <= -37.901\nmse = 262888888.889\nsamples = 3\nvalue = 304333.333", fillcolor="#fffdfc"] ;
45 -> 46 ;
47 [label="Longtitude <= 145.021\nmse = 9000000.0\nsamples = 2\nvalue = 293000.0", fillcolor="#fffdfc"] ;
46 -> 47 ;
48 [label="mse = 0.0\nsamples = 1\nvalue = 290000.0", fillcolor="#fffdfc"] ;
47 -> 48 ;
49 [label="mse = 0.0\nsamples = 1\nvalue = 296000.0", fillcolor="#fffdfc"] ;
47 -> 49 ;
50 [label="mse = 0.0\nsamples = 1\nvalue = 327000.0", fillcolor="#fffdfb"] ;
46 -> 50 ;
51 [label="Longtitude <= 145.06\nmse = 1103034722.222\nsamples = 6\nvalue = 280083.333", fillcolor="#fffdfd"] ;
45 -> 51 ;
52 [label="mse = 0.0\nsamples = 1\nvalue = 240000.0", fillcolor="#fffefd"] ;
51 -> 52 ;
53 [label="Longtitude <= 145.062\nmse = 938040000.0\nsamples = 5\nvalue = 288100.0", fillcolor="#fffdfc"] ;
51 -> 53 ;
54 [label="mse = 0.0\nsamples = 1\nvalue = 330000.0", fillcolor="#fffdfb"] ;
53 -> 54 ;
55 [label="Longtitude <= 145.073\nmse = 623921875.0\nsamples = 4\nvalue = 277625.0", fillcolor="#fffdfd"] ;
53 -> 55 ;
56 [label="Longtitude <= 145.068\nmse = 10562500.0\nsamples = 2\nvalue = 253250.0", fillcolor="#fffefd"] ;
55 -> 56 ;
57 [label="mse = 0.0\nsamples = 1\nvalue = 250000.0", fillcolor="#fffefd"] ;
56 -> 57 ;
58 [label="mse = 0.0\nsamples = 1\nvalue = 256500.0", fillcolor="#fffefd"] ;
56 -> 58 ;
59 [label="Landsize <= 28.5\nmse = 49000000.0\nsamples = 2\nvalue = 302000.0", fillcolor="#fffdfc"] ;
55 -> 59 ;
60 [label="mse = 0.0\nsamples = 1\nvalue = 295000.0", fillcolor="#fffdfc"] ;
59 -> 60 ;
61 [label="mse = 0.0\nsamples = 1\nvalue = 309000.0", fillcolor="#fffdfc"] ;
59 -> 61 ;
62 [label="mse = 0.0\nsamples = 1\nvalue = 346000.0", fillcolor="#fefcfb"] ;
44 -> 62 ;
63 [label="Longtitude <= 145.066\nmse = 2326462222.222\nsamples = 15\nvalue = 339266.667", fillcolor="#fffdfb"] ;
43 -> 63 ;
64 [label="Lattitude <= -37.865\nmse = 1184637755.102\nsamples = 14\nvalue = 329928.571", fillcolor="#fffdfb"] ;
63 -> 64 ;
65 [label="Longtitude <= 145.044\nmse = 717966942.149\nsamples = 11\nvalue = 340818.182", fillcolor="#fefdfb"] ;
64 -> 65 ;
66 [label="Lattitude <= -37.869\nmse = 68687500.0\nsamples = 4\nvalue = 362250.0", fillcolor="#fefcfb"] ;
65 -> 66 ;
67 [label="Longtitude <= 145.038\nmse = 24888888.889\nsamples = 3\nvalue = 366333.333", fillcolor="#fefcfb"] ;
66 -> 67 ;
68 [label="Longtitude <= 145.034\nmse = 4000000.0\nsamples = 2\nvalue = 363000.0", fillcolor="#fefcfb"] ;
67 -> 68 ;
69 [label="mse = 0.0\nsamples = 1\nvalue = 361000.0", fillcolor="#fefcfb"] ;
68 -> 69 ;
70 [label="mse = 0.0\nsamples = 1\nvalue = 365000.0", fillcolor="#fefcfb"] ;
68 -> 70 ;
71 [label="mse = 0.0\nsamples = 1\nvalue = 373000.0", fillcolor="#fefcfa"] ;
67 -> 71 ;
72 [label="mse = 0.0\nsamples = 1\nvalue = 350000.0", fillcolor="#fefcfb"] ;
66 -> 72 ;
73 [label="Lattitude <= -37.887\nmse = 676530612.245\nsamples = 7\nvalue = 328571.429", fillcolor="#fffdfb"] ;
65 -> 73 ;
74 [label="Longtitude <= 145.052\nmse = 205555555.556\nsamples = 3\nvalue = 348333.333", fillcolor="#fefcfb"] ;
73 -> 74 ;
75 [label="Lattitude <= -37.889\nmse = 56250000.0\nsamples = 2\nvalue = 357500.0", fillcolor="#fefcfb"] ;
74 -> 75 ;
76 [label="mse = 0.0\nsamples = 1\nvalue = 350000.0", fillcolor="#fefcfb"] ;
75 -> 76 ;
77 [label="mse = 0.0\nsamples = 1\nvalue = 365000.0", fillcolor="#fefcfb"] ;
75 -> 77 ;
78 [label="mse = 0.0\nsamples = 1\nvalue = 330000.0", fillcolor="#fffdfb"] ;
74 -> 78 ;
79 [label="Longtitude <= 145.056\nmse = 517187500.0\nsamples = 4\nvalue = 313750.0", fillcolor="#fffdfc"] ;
73 -> 79 ;
80 [label="Lattitude <= -37.877\nmse = 438888888.889\nsamples = 3\nvalue = 321666.667", fillcolor="#fffdfc"] ;
79 -> 80 ;
81 [label="mse = 0.0\nsamples = 1\nvalue = 350000.0", fillcolor="#fefcfb"] ;
80 -> 81 ;
82 [label="Lattitude <= -37.873\nmse = 56250000.0\nsamples = 2\nvalue = 307500.0", fillcolor="#fffdfc"] ;
80 -> 82 ;
83 [label="mse = 0.0\nsamples = 1\nvalue = 300000.0", fillcolor="#fffdfc"] ;
82 -> 83 ;
84 [label="mse = 0.0\nsamples = 1\nvalue = 315000.0", fillcolor="#fffdfc"] ;
82 -> 84 ;
85 [label="mse = 0.0\nsamples = 1\nvalue = 290000.0", fillcolor="#fffdfc"] ;
79 -> 85 ;
86 [label="Longtitude <= 145.048\nmse = 866666666.667\nsamples = 3\nvalue = 290000.0", fillcolor="#fffdfc"] ;
64 -> 86 ;
87 [label="Longtitude <= 145.033\nmse = 100000000.0\nsamples = 2\nvalue = 270000.0", fillcolor="#fffefd"] ;
86 -> 87 ;
88 [label="mse = 0.0\nsamples = 1\nvalue = 280000.0", fillcolor="#fffdfd"] ;
87 -> 88 ;
89 [label="mse = 0.0\nsamples = 1\nvalue = 260000.0", fillcolor="#fffefd"] ;
87 -> 89 ;
90 [label="mse = 0.0\nsamples = 1\nvalue = 330000.0", fillcolor="#fffdfb"] ;
86 -> 90 ;
91 [label="mse = 0.0\nsamples = 1\nvalue = 470000.0", fillcolor="#fefbf8"] ;
63 -> 91 ;
92 [label="Longtitude <= 144.88\nmse = 10792884470.475\nsamples = 91\nvalue = 425552.747", fillcolor="#fefbf9"] ;
6 -> 92 ;
93 [label="Lattitude <= -37.826\nmse = 3772222222.222\nsamples = 3\nvalue = 248333.333", fillcolor="#fffefd"] ;
92 -> 93 ;
94 [label="mse = 0.0\nsamples = 1\nvalue = 335000.0", fillcolor="#fffdfb"] ;
93 -> 94 ;
95 [label="Lattitude <= -37.809\nmse = 25000000.0\nsamples = 2\nvalue = 205000.0", fillcolor="#fffffe"] ;
93 -> 95 ;
96 [label="mse = 0.0\nsamples = 1\nvalue = 210000.0", fillcolor="#fffefe"] ;
95 -> 96 ;
97 [label="mse = 0.0\nsamples = 1\nvalue = 200000.0", fillcolor="#fffffe"] ;
95 -> 97 ;
98 [label="Longtitude <= 144.932\nmse = 9925040990.444\nsamples = 88\nvalue = 431594.318", fillcolor="#fefbf9"] ;
92 -> 98 ;
99 [label="Landsize <= 15.0\nmse = 9101437500.0\nsamples = 8\nvalue = 373250.0", fillcolor="#fefcfa"] ;
98 -> 99 ;
100 [label="Lattitude <= -37.814\nmse = 3657061224.49\nsamples = 7\nvalue = 402285.714", fillcolor="#fefcfa"] ;
99 -> 100 ;
101 [label="Longtitude <= 144.897\nmse = 2716666666.667\nsamples = 3\nvalue = 455000.0", fillcolor="#fefbf9"] ;
100 -> 101 ;
102 [label="mse = 400000000.0\nsamples = 2\nvalue = 490000.0", fillcolor="#fefaf8"] ;
101 -> 102 ;
103 [label="mse = 0.0\nsamples = 1\nvalue = 385000.0", fillcolor="#fefcfa"] ;
101 -> 103 ;
104 [label="Lattitude <= -37.806\nmse = 715187500.0\nsamples = 4\nvalue = 362750.0", fillcolor="#fefcfb"] ;
100 -> 104 ;
105 [label="Longtitude <= 144.891\nmse = 49000000.0\nsamples = 2\nvalue = 338000.0", fillcolor="#fffdfb"] ;
104 -> 105 ;
106 [label="mse = 0.0\nsamples = 1\nvalue = 345000.0", fillcolor="#fefdfb"] ;
105 -> 106 ;
107 [label="mse = 0.0\nsamples = 1\nvalue = 331000.0", fillcolor="#fffdfb"] ;
105 -> 107 ;
108 [label="Lattitude <= -37.799\nmse = 156250000.0\nsamples = 2\nvalue = 387500.0", fillcolor="#fefcfa"] ;
104 -> 108 ;
109 [label="mse = 0.0\nsamples = 1\nvalue = 375000.0", fillcolor="#fefcfa"] ;
108 -> 109 ;
110 [label="mse = 0.0\nsamples = 1\nvalue = 400000.0", fillcolor="#fefcfa"] ;
108 -> 110 ;
111 [label="mse = 0.0\nsamples = 1\nvalue = 170000.0", fillcolor="#ffffff"] ;
99 -> 111 ;
112 [label="Lattitude <= -37.817\nmse = 9632954798.438\nsamples = 80\nvalue = 437428.75", fillcolor="#fefbf9"] ;
98 -> 112 ;
113 [label="Lattitude <= -37.826\nmse = 5470147496.811\nsamples = 56\nvalue = 421451.786", fillcolor="#fefbf9"] ;
112 -> 113 ;
114 [label="Longtitude <= 145.01\nmse = 5492038072.576\nsamples = 41\nvalue = 434043.902", fillcolor="#fefbf9"] ;
113 -> 114 ;
115 [label="Longtitude <= 144.986\nmse = 4147523066.667\nsamples = 30\nvalue = 415460.0", fillcolor="#fefbf9"] ;
114 -> 115 ;
116 [label="Longtitude <= 144.984\nmse = 3349611111.111\nsamples = 9\nvalue = 452000.0", fillcolor="#fefbf9"] ;
115 -> 116 ;
117 [label="Longtitude <= 144.977\nmse = 1892339843.75\nsamples = 8\nvalue = 437562.5", fillcolor="#fefbf9"] ;
116 -> 117 ;
118 [label="Lattitude <= -37.84\nmse = 910887755.102\nsamples = 7\nvalue = 450071.429", fillcolor="#fefbf9"] ;
117 -> 118 ;
119 [label="Longtitude <= 144.948\nmse = 454796875.0\nsamples = 4\nvalue = 467125.0", fillcolor="#fefbf8"] ;
118 -> 119 ;
120 [label="Longtitude <= 144.939\nmse = 336888888.889\nsamples = 3\nvalue = 475333.333", fillcolor="#fefbf8"] ;
119 -> 120 ;
121 [label="mse = 0.0\nsamples = 1\nvalue = 456000.0", fillcolor="#fefbf9"] ;
120 -> 121 ;
122 [label="Lattitude <= -37.843\nmse = 225000000.0\nsamples = 2\nvalue = 485000.0", fillcolor="#fefbf8"] ;
120 -> 122 ;
123 [label="mse = 0.0\nsamples = 1\nvalue = 470000.0", fillcolor="#fefbf8"] ;
122 -> 123 ;
124 [label="mse = 0.0\nsamples = 1\nvalue = 500000.0", fillcolor="#fefaf8"] ;
122 -> 124 ;
125 [label="mse = 0.0\nsamples = 1\nvalue = 442500.0", fillcolor="#fefbf9"] ;
119 -> 125 ;
126 [label="Longtitude <= 144.95\nmse = 614222222.222\nsamples = 3\nvalue = 427333.333", fillcolor="#fefbf9"] ;
118 -> 126 ;
127 [label="mse = 0.0\nsamples = 1\nvalue = 400000.0", fillcolor="#fefcfa"] ;
126 -> 127 ;
128 [label="Landsize <= 31.5\nmse = 361000000.0\nsamples = 2\nvalue = 441000.0", fillcolor="#fefbf9"] ;
126 -> 128 ;
129 [label="mse = 0.0\nsamples = 1\nvalue = 460000.0", fillcolor="#fefbf8"] ;
128 -> 129 ;
130 [label="mse = 0.0\nsamples = 1\nvalue = 422000.0", fillcolor="#fefbf9"] ;
128 -> 130 ;
131 [label="mse = 0.0\nsamples = 1\nvalue = 350000.0", fillcolor="#fefcfb"] ;
117 -> 131 ;
132 [label="mse = 0.0\nsamples = 1\nvalue = 567500.0", fillcolor="#fef9f6"] ;
116 -> 132 ;
133 [label="Longtitude <= 144.988\nmse = 3672033333.333\nsamples = 21\nvalue = 399800.0", fillcolor="#fefcfa"] ;
115 -> 133 ;
134 [label="Lattitude <= -37.84\nmse = 256000000.0\nsamples = 2\nvalue = 326000.0", fillcolor="#fffdfc"] ;
133 -> 134 ;
135 [label="mse = 0.0\nsamples = 1\nvalue = 342000.0", fillcolor="#fefdfb"] ;
134 -> 135 ;
136 [label="mse = 0.0\nsamples = 1\nvalue = 310000.0", fillcolor="#fffdfc"] ;
134 -> 136 ;
137 [label="Longtitude <= 145.001\nmse = 3397957950.139\nsamples = 19\nvalue = 407568.421", fillcolor="#fefcfa"] ;
133 -> 137 ;
138 [label="Lattitude <= -37.847\nmse = 1596727100.592\nsamples = 13\nvalue = 425446.154", fillcolor="#fefbf9"] ;
137 -> 138 ;
139 [label="Longtitude <= 144.996\nmse = 2748307500.0\nsamples = 4\nvalue = 462950.0", fillcolor="#fefbf8"] ;
138 -> 139 ;
140 [label="Lattitude <= -37.851\nmse = 3014010000.0\nsamples = 2\nvalue = 494900.0", fillcolor="#fefaf8"] ;
139 -> 140 ;
141 [label="mse = 0.0\nsamples = 1\nvalue = 549800.0", fillcolor="#fefaf6"] ;
140 -> 141 ;
142 [label="mse = 0.0\nsamples = 1\nvalue = 440000.0", fillcolor="#fefbf9"] ;
140 -> 142 ;
143 [label="Lattitude <= -37.857\nmse = 441000000.0\nsamples = 2\nvalue = 431000.0", fillcolor="#fefbf9"] ;
139 -> 143 ;
144 [label="mse = 0.0\nsamples = 1\nvalue = 410000.0", fillcolor="#fefcfa"] ;
143 -> 144 ;
145 [label="mse = 0.0\nsamples = 1\nvalue = 452000.0", fillcolor="#fefbf9"] ;
143 -> 145 ;
146 [label="Lattitude <= -37.835\nmse = 181950617.284\nsamples = 9\nvalue = 408777.778", fillcolor="#fefcfa"] ;
138 -> 146 ;
147 [label="Longtitude <= 144.992\nmse = 162979591.837\nsamples = 7\nvalue = 404857.143", fillcolor="#fefcfa"] ;
146 -> 147 ;
148 [label="Lattitude <= -37.841\nmse = 146888888.889\nsamples = 3\nvalue = 396333.333", fillcolor="#fefcfa"] ;
147 -> 148 ;
149 [label="mse = 0.0\nsamples = 1\nvalue = 380000.0", fillcolor="#fefcfa"] ;
148 -> 149 ;
150 [label="Lattitude <= -37.838\nmse = 20250000.0\nsamples = 2\nvalue = 404500.0", fillcolor="#fefcfa"] ;
148 -> 150 ;
151 [label="mse = 0.0\nsamples = 1\nvalue = 409000.0", fillcolor="#fefcfa"] ;
150 -> 151 ;
152 [label="mse = 0.0\nsamples = 1\nvalue = 400000.0", fillcolor="#fefcfa"] ;
150 -> 152 ;
153 [label="Longtitude <= 144.997\nmse = 79687500.0\nsamples = 4\nvalue = 411250.0", fillcolor="#fefcfa"] ;
147 -> 153 ;
154 [label="mse = 0.0\nsamples = 1\nvalue = 425000.0", fillcolor="#fefbf9"] ;
153 -> 154 ;
155 [label="Longtitude <= 145.001\nmse = 22222222.222\nsamples = 3\nvalue = 406666.667", fillcolor="#fefcfa"] ;
153 -> 155 ;
156 [label="mse = 0.0\nsamples = 2\nvalue = 410000.0", fillcolor="#fefcfa"] ;
155 -> 156 ;
157 [label="mse = 0.0\nsamples = 1\nvalue = 400000.0", fillcolor="#fefcfa"] ;
155 -> 157 ;
158 [label="Lattitude <= -37.833\nmse = 6250000.0\nsamples = 2\nvalue = 422500.0", fillcolor="#fefbf9"] ;
146 -> 158 ;
159 [label="mse = 0.0\nsamples = 1\nvalue = 420000.0", fillcolor="#fefbf9"] ;
158 -> 159 ;
160 [label="mse = 0.0\nsamples = 1\nvalue = 425000.0", fillcolor="#fefbf9"] ;
158 -> 160 ;
161 [label="Lattitude <= -37.857\nmse = 5107722222.222\nsamples = 6\nvalue = 368833.333", fillcolor="#fefcfb"] ;
137 -> 161 ;
162 [label="mse = 0.0\nsamples = 1\nvalue = 500500.0", fillcolor="#fefaf8"] ;
161 -> 162 ;
163 [label="Lattitude <= -37.854\nmse = 1968600000.0\nsamples = 5\nvalue = 342500.0", fillcolor="#fefdfb"] ;
161 -> 163 ;
164 [label="mse = 0.0\nsamples = 1\nvalue = 275000.0", fillcolor="#fffefd"] ;
163 -> 164 ;
165 [label="Longtitude <= 145.006\nmse = 1036921875.0\nsamples = 4\nvalue = 359375.0", fillcolor="#fefcfb"] ;
163 -> 165 ;
166 [label="Lattitude <= -37.842\nmse = 649055555.556\nsamples = 3\nvalue = 345833.333", fillcolor="#fefcfb"] ;
165 -> 166 ;
167 [label="mse = 0.0\nsamples = 1\nvalue = 310000.0", fillcolor="#fffdfc"] ;
166 -> 167 ;
168 [label="Lattitude <= -37.84\nmse = 10562500.0\nsamples = 2\nvalue = 363750.0", fillcolor="#fefcfb"] ;
166 -> 168 ;
169 [label="mse = 0.0\nsamples = 1\nvalue = 367000.0", fillcolor="#fefcfb"] ;
168 -> 169 ;
170 [label="mse = 0.0\nsamples = 1\nvalue = 360500.0", fillcolor="#fefcfb"] ;
168 -> 170 ;
171 [label="mse = 0.0\nsamples = 1\nvalue = 400000.0", fillcolor="#fefcfa"] ;
165 -> 171 ;
172 [label="Longtitude <= 145.036\nmse = 5648198347.107\nsamples = 11\nvalue = 484727.273", fillcolor="#fefbf8"] ;
114 -> 172 ;
173 [label="Lattitude <= -37.827\nmse = 2550857142.857\nsamples = 7\nvalue = 513000.0", fillcolor="#fefaf7"] ;
172 -> 173 ;
174 [label="Longtitude <= 145.011\nmse = 2076888888.889\nsamples = 6\nvalue = 524333.333", fillcolor="#fefaf7"] ;
173 -> 174 ;
175 [label="mse = 0.0\nsamples = 1\nvalue = 567000.0", fillcolor="#fef9f6"] ;
174 -> 175 ;
176 [label="Lattitude <= -37.845\nmse = 2055360000.0\nsamples = 5\nvalue = 515800.0", fillcolor="#fefaf7"] ;
174 -> 176 ;
177 [label="mse = 0.0\nsamples = 1\nvalue = 440000.0", fillcolor="#fefbf9"] ;
176 -> 177 ;
178 [label="Longtitude <= 145.033\nmse = 773687500.0\nsamples = 4\nvalue = 534750.0", fillcolor="#fefaf7"] ;
176 -> 178 ;
179 [label="Lattitude <= -37.832\nmse = 60222222.222\nsamples = 3\nvalue = 550333.333", fillcolor="#fefaf6"] ;
178 -> 179 ;
180 [label="Longtitude <= 145.012\nmse = 20250000.0\nsamples = 2\nvalue = 545500.0", fillcolor="#fefaf7"] ;
179 -> 180 ;
181 [label="mse = 0.0\nsamples = 1\nvalue = 541000.0", fillcolor="#fefaf7"] ;
180 -> 181 ;
182 [label="mse = 0.0\nsamples = 1\nvalue = 550000.0", fillcolor="#fefaf6"] ;
180 -> 182 ;
183 [label="mse = 0.0\nsamples = 1\nvalue = 560000.0", fillcolor="#fef9f6"] ;
179 -> 183 ;
184 [label="mse = 0.0\nsamples = 1\nvalue = 488000.0", fillcolor="#fefaf8"] ;
178 -> 184 ;
185 [label="mse = 0.0\nsamples = 1\nvalue = 445000.0", fillcolor="#fefbf9"] ;
173 -> 185 ;
186 [label="Longtitude <= 145.04\nmse = 7221687500.0\nsamples = 4\nvalue = 435250.0", fillcolor="#fefbf9"] ;
172 -> 186 ;
187 [label="mse = 0.0\nsamples = 1\nvalue = 292000.0", fillcolor="#fffdfc"] ;
186 -> 187 ;
188 [label="Lattitude <= -37.843\nmse = 508666666.667\nsamples = 3\nvalue = 483000.0", fillcolor="#fefbf8"] ;
186 -> 188 ;
189 [label="mse = 0.0\nsamples = 1\nvalue = 452000.0", fillcolor="#fefbf9"] ;
188 -> 189 ;
190 [label="Longtitude <= 145.048\nmse = 42250000.0\nsamples = 2\nvalue = 498500.0", fillcolor="#fefaf8"] ;
188 -> 190 ;
191 [label="mse = 0.0\nsamples = 1\nvalue = 492000.0", fillcolor="#fefaf8"] ;
190 -> 191 ;
192 [label="mse = 0.0\nsamples = 1\nvalue = 505000.0", fillcolor="#fefaf7"] ;
190 -> 192 ;
193 [label="Lattitude <= -37.82\nmse = 3792282222.222\nsamples = 15\nvalue = 387033.333", fillcolor="#fefcfa"] ;
113 -> 193 ;
194 [label="Longtitude <= 144.959\nmse = 2546802469.136\nsamples = 9\nvalue = 360055.556", fillcolor="#fefcfb"] ;
193 -> 194 ;
195 [label="mse = 0.0\nsamples = 1\nvalue = 275000.0", fillcolor="#fffefd"] ;
194 -> 195 ;
196 [label="Longtitude <= 144.976\nmse = 1847808593.75\nsamples = 8\nvalue = 370687.5", fillcolor="#fefcfa"] ;
194 -> 196 ;
197 [label="mse = 0.0\nsamples = 1\nvalue = 425000.0", fillcolor="#fefbf9"] ;
196 -> 197 ;
198 [label="Lattitude <= -37.824\nmse = 1630173469.388\nsamples = 7\nvalue = 362928.571", fillcolor="#fefcfb"] ;
196 -> 198 ;
199 [label="Longtitude <= 145.025\nmse = 911055555.556\nsamples = 3\nvalue = 332833.333", fillcolor="#fffdfb"] ;
198 -> 199 ;
200 [label="Lattitude <= -37.825\nmse = 33062500.0\nsamples = 2\nvalue = 311750.0", fillcolor="#fffdfc"] ;
199 -> 200 ;
201 [label="mse = 0.0\nsamples = 1\nvalue = 317500.0", fillcolor="#fffdfc"] ;
200 -> 201 ;
202 [label="mse = 0.0\nsamples = 1\nvalue = 306000.0", fillcolor="#fffdfc"] ;
200 -> 202 ;
203 [label="mse = 0.0\nsamples = 1\nvalue = 375000.0", fillcolor="#fefcfa"] ;
199 -> 203 ;
204 [label="Longtitude <= 145.0\nmse = 980750000.0\nsamples = 4\nvalue = 385500.0", fillcolor="#fefcfa"] ;
198 -> 204 ;
205 [label="mse = 0.0\nsamples = 1\nvalue = 342000.0", fillcolor="#fefdfb"] ;
204 -> 205 ;
206 [label="Lattitude <= -37.823\nmse = 466666666.667\nsamples = 3\nvalue = 400000.0", fillcolor="#fefcfa"] ;
204 -> 206 ;
207 [label="mse = 0.0\nsamples = 1\nvalue = 420000.0", fillcolor="#fefbf9"] ;
206 -> 207 ;
208 [label="Longtitude <= 145.022\nmse = 400000000.0\nsamples = 2\nvalue = 390000.0", fillcolor="#fefcfa"] ;
206 -> 208 ;
209 [label="mse = 0.0\nsamples = 1\nvalue = 410000.0", fillcolor="#fefcfa"] ;
208 -> 209 ;
210 [label="mse = 0.0\nsamples = 1\nvalue = 370000.0", fillcolor="#fefcfb"] ;
208 -> 210 ;
211 [label="Lattitude <= -37.818\nmse = 2931250000.0\nsamples = 6\nvalue = 427500.0", fillcolor="#fefbf9"] ;
193 -> 211 ;
212 [label="Lattitude <= -37.82\nmse = 1236000000.0\nsamples = 5\nvalue = 447000.0", fillcolor="#fefbf9"] ;
211 -> 212 ;
213 [label="mse = 0.0\nsamples = 1\nvalue = 500000.0", fillcolor="#fefaf8"] ;
212 -> 213 ;
214 [label="Lattitude <= -37.819\nmse = 667187500.0\nsamples = 4\nvalue = 433750.0", fillcolor="#fefbf9"] ;
212 -> 214 ;
215 [label="mse = 0.0\nsamples = 1\nvalue = 390000.0", fillcolor="#fefcfa"] ;
214 -> 215 ;
216 [label="Lattitude <= -37.819\nmse = 38888888.889\nsamples = 3\nvalue = 448333.333", fillcolor="#fefbf9"] ;
214 -> 216 ;
217 [label="mse = 0.0\nsamples = 1\nvalue = 440000.0", fillcolor="#fefbf9"] ;
216 -> 217 ;
218 [label="Lattitude <= -37.818\nmse = 6250000.0\nsamples = 2\nvalue = 452500.0", fillcolor="#fefbf9"] ;
216 -> 218 ;
219 [label="mse = 0.0\nsamples = 1\nvalue = 455000.0", fillcolor="#fefbf9"] ;
218 -> 219 ;
220 [label="mse = 0.0\nsamples = 1\nvalue = 450000.0", fillcolor="#fefbf9"] ;
218 -> 220 ;
221 [label="mse = 0.0\nsamples = 1\nvalue = 330000.0", fillcolor="#fffdfb"] ;
211 -> 221 ;
222 [label="Lattitude <= -37.813\nmse = 17360789930.556\nsamples = 24\nvalue = 474708.333", fillcolor="#fefbf8"] ;
112 -> 222 ;
223 [label="Longtitude <= 145.012\nmse = 10764666666.667\nsamples = 3\nvalue = 636000.0", fillcolor="#fef8f5"] ;
222 -> 223 ;
224 [label="Longtitude <= 144.981\nmse = 2070250000.0\nsamples = 2\nvalue = 704500.0", fillcolor="#fdf7f3"] ;
223 -> 224 ;
225 [label="mse = 0.0\nsamples = 1\nvalue = 659000.0", fillcolor="#fef8f4"] ;
224 -> 225 ;
226 [label="mse = 0.0\nsamples = 1\nvalue = 750000.0", fillcolor="#fdf7f2"] ;
224 -> 226 ;
227 [label="mse = 0.0\nsamples = 1\nvalue = 499000.0", fillcolor="#fefaf8"] ;
223 -> 227 ;
228 [label="Lattitude <= -37.812\nmse = 14055746031.746\nsamples = 21\nvalue = 451666.667", fillcolor="#fefbf9"] ;
222 -> 228 ;
229 [label="Longtitude <= 145.013\nmse = 3173250000.0\nsamples = 6\nvalue = 369500.0", fillcolor="#fefcfb"] ;
228 -> 229 ;
230 [label="Longtitude <= 144.978\nmse = 877440000.0\nsamples = 5\nvalue = 347400.0", fillcolor="#fefcfb"] ;
229 -> 230 ;
231 [label="mse = 0.0\nsamples = 1\nvalue = 386000.0", fillcolor="#fefcfa"] ;
230 -> 231 ;
232 [label="Longtitude <= 145.009\nmse = 631187500.0\nsamples = 4\nvalue = 337750.0", fillcolor="#fffdfb"] ;
230 -> 232 ;
233 [label="Lattitude <= -37.813\nmse = 64000000.0\nsamples = 2\nvalue = 322000.0", fillcolor="#fffdfc"] ;
232 -> 233 ;
234 [label="mse = 0.0\nsamples = 1\nvalue = 330000.0", fillcolor="#fffdfb"] ;
233 -> 234 ;
235 [label="mse = 0.0\nsamples = 1\nvalue = 314000.0", fillcolor="#fffdfc"] ;
233 -> 235 ;
236 [label="mse = 702250000.0\nsamples = 2\nvalue = 353500.0", fillcolor="#fefcfb"] ;
232 -> 236 ;
237 [label="mse = 0.0\nsamples = 1\nvalue = 480000.0", fillcolor="#fefbf8"] ;
229 -> 237 ;
238 [label="Lattitude <= -37.811\nmse = 14627982222.222\nsamples = 15\nvalue = 484533.333", fillcolor="#fefbf8"] ;
228 -> 238 ;
239 [label="mse = 0.0\nsamples = 1\nvalue = 895000.0", fillcolor="#fdf5ef"] ;
238 -> 239 ;
240 [label="Lattitude <= -37.803\nmse = 2778739795.918\nsamples = 14\nvalue = 455214.286", fillcolor="#fefbf9"] ;
238 -> 240 ;
241 [label="Lattitude <= -37.809\nmse = 1259387755.102\nsamples = 7\nvalue = 485571.429", fillcolor="#fefaf8"] ;
240 -> 241 ;
242 [label="mse = 0.0\nsamples = 1\nvalue = 432000.0", fillcolor="#fefbf9"] ;
241 -> 242 ;
243 [label="Longtitude <= 145.016\nmse = 911250000.0\nsamples = 6\nvalue = 494500.0", fillcolor="#fefaf8"] ;
241 -> 243 ;
244 [label="Longtitude <= 144.989\nmse = 992640000.0\nsamples = 5\nvalue = 490400.0", fillcolor="#fefaf8"] ;
243 -> 244 ;
245 [label="Lattitude <= -37.806\nmse = 1110750000.0\nsamples = 4\nvalue = 495500.0", fillcolor="#fefaf8"] ;
244 -> 245 ;
246 [label="mse = 1467555555.556\nsamples = 3\nvalue = 497333.333", fillcolor="#fefaf8"] ;
245 -> 246 ;
247 [label="mse = 0.0\nsamples = 1\nvalue = 490000.0", fillcolor="#fefaf8"] ;
245 -> 247 ;
248 [label="mse = 0.0\nsamples = 1\nvalue = 470000.0", fillcolor="#fefbf8"] ;
244 -> 248 ;
249 [label="mse = 0.0\nsamples = 1\nvalue = 515000.0", fillcolor="#fefaf7"] ;
243 -> 249 ;
250 [label="Lattitude <= -37.798\nmse = 2454979591.837\nsamples = 7\nvalue = 424857.143", fillcolor="#fefbf9"] ;
240 -> 250 ;
251 [label="Longtitude <= 144.971\nmse = 2717440000.0\nsamples = 5\nvalue = 410600.0", fillcolor="#fefcfa"] ;
250 -> 251 ;
252 [label="Lattitude <= -37.8\nmse = 2578666666.667\nsamples = 3\nvalue = 436000.0", fillcolor="#fefbf9"] ;
251 -> 252 ;
253 [label="Lattitude <= -37.801\nmse = 1681000000.0\nsamples = 2\nvalue = 409000.0", fillcolor="#fefcfa"] ;
252 -> 253 ;
254 [label="mse = 0.0\nsamples = 1\nvalue = 450000.0", fillcolor="#fefbf9"] ;
253 -> 254 ;
255 [label="mse = 0.0\nsamples = 1\nvalue = 368000.0", fillcolor="#fefcfb"] ;
253 -> 255 ;
256 [label="mse = 0.0\nsamples = 1\nvalue = 490000.0", fillcolor="#fefaf8"] ;
252 -> 256 ;
257 [label="Lattitude <= -37.799\nmse = 506250000.0\nsamples = 2\nvalue = 372500.0", fillcolor="#fefcfa"] ;
251 -> 257 ;
258 [label="mse = 0.0\nsamples = 1\nvalue = 395000.0", fillcolor="#fefcfa"] ;
257 -> 258 ;
259 [label="mse = 0.0\nsamples = 1\nvalue = 350000.0", fillcolor="#fefcfb"] ;
257 -> 259 ;
260 [label="Longtitude <= 144.982\nmse = 20250000.0\nsamples = 2\nvalue = 460500.0", fillcolor="#fefbf8"] ;
250 -> 260 ;
261 [label="mse = 0.0\nsamples = 1\nvalue = 465000.0", fillcolor="#fefbf8"] ;
260 -> 261 ;
262 [label="mse = 0.0\nsamples = 1\nvalue = 456000.0", fillcolor="#fefbf9"] ;
260 -> 262 ;
263 [label="Longtitude <= 144.996\nmse = 4558244598.765\nsamples = 54\nvalue = 333694.444", fillcolor="#fffdfb"] ;
5 -> 263 ;
264 [label="Lattitude <= -37.772\nmse = 3828839710.884\nsamples = 42\nvalue = 318392.857", fillcolor="#fffdfc"] ;
263 -> 264 ;
265 [label="Longtitude <= 144.901\nmse = 3230423553.719\nsamples = 22\nvalue = 346909.091", fillcolor="#fefcfb"] ;
264 -> 265 ;
266 [label="Longtitude <= 144.891\nmse = 1353500000.0\nsamples = 4\nvalue = 257000.0", fillcolor="#fffefd"] ;
265 -> 266 ;
267 [label="Longtitude <= 144.839\nmse = 156250000.0\nsamples = 2\nvalue = 292500.0", fillcolor="#fffdfc"] ;
266 -> 267 ;
268 [label="mse = 0.0\nsamples = 1\nvalue = 280000.0", fillcolor="#fffdfd"] ;
267 -> 268 ;
269 [label="mse = 0.0\nsamples = 1\nvalue = 305000.0", fillcolor="#fffdfc"] ;
267 -> 269 ;
270 [label="mse = 30250000.0\nsamples = 2\nvalue = 221500.0", fillcolor="#fffefe"] ;
266 -> 270 ;
271 [label="Longtitude <= 144.926\nmse = 1451959876.543\nsamples = 18\nvalue = 366888.889", fillcolor="#fefcfb"] ;
265 -> 271 ;
272 [label="Longtitude <= 144.924\nmse = 221687500.0\nsamples = 4\nvalue = 399250.0", fillcolor="#fefcfa"] ;
271 -> 272 ;
273 [label="Lattitude <= -37.79\nmse = 888888.889\nsamples = 3\nvalue = 390666.667", fillcolor="#fefcfa"] ;
272 -> 273 ;
274 [label="mse = 0.0\nsamples = 1\nvalue = 390000.0", fillcolor="#fefcfa"] ;
273 -> 274 ;
275 [label="Lattitude <= -37.781\nmse = 1000000.0\nsamples = 2\nvalue = 391000.0", fillcolor="#fefcfa"] ;
273 -> 275 ;
276 [label="mse = 0.0\nsamples = 1\nvalue = 392000.0", fillcolor="#fefcfa"] ;
275 -> 276 ;
277 [label="mse = 0.0\nsamples = 1\nvalue = 390000.0", fillcolor="#fefcfa"] ;
275 -> 277 ;
278 [label="mse = 0.0\nsamples = 1\nvalue = 425000.0", fillcolor="#fefbf9"] ;
272 -> 278 ;
279 [label="Lattitude <= -37.778\nmse = 1418765306.122\nsamples = 14\nvalue = 357642.857", fillcolor="#fefcfb"] ;
271 -> 279 ;
280 [label="Longtitude <= 144.993\nmse = 1259309917.355\nsamples = 11\nvalue = 367909.091", fillcolor="#fefcfb"] ;
279 -> 280 ;
281 [label="Lattitude <= -37.781\nmse = 1041400000.0\nsamples = 10\nvalue = 373500.0", fillcolor="#fefcfa"] ;
280 -> 281 ;
282 [label="Lattitude <= -37.796\nmse = 268622448.98\nsamples = 7\nvalue = 355642.857", fillcolor="#fefcfb"] ;
281 -> 282 ;
283 [label="Lattitude <= -37.796\nmse = 4250000.0\nsamples = 4\nvalue = 366500.0", fillcolor="#fefcfb"] ;
282 -> 283 ;
284 [label="mse = 6250000.0\nsamples = 2\nvalue = 367500.0", fillcolor="#fefcfb"] ;
283 -> 284 ;
285 [label="Longtitude <= 144.991\nmse = 250000.0\nsamples = 2\nvalue = 365500.0", fillcolor="#fefcfb"] ;
283 -> 285 ;
286 [label="mse = 0.0\nsamples = 1\nvalue = 365000.0", fillcolor="#fefcfb"] ;
285 -> 286 ;
287 [label="mse = 0.0\nsamples = 1\nvalue = 366000.0", fillcolor="#fefcfb"] ;
285 -> 287 ;
288 [label="Lattitude <= -37.794\nmse = 254388888.889\nsamples = 3\nvalue = 341166.667", fillcolor="#fefdfb"] ;
282 -> 288 ;
289 [label="mse = 0.0\nsamples = 1\nvalue = 320000.0", fillcolor="#fffdfc"] ;
288 -> 289 ;
290 [label="Longtitude <= 144.955\nmse = 45562500.0\nsamples = 2\nvalue = 351750.0", fillcolor="#fefcfb"] ;
288 -> 290 ;
291 [label="mse = 0.0\nsamples = 1\nvalue = 345000.0", fillcolor="#fefdfb"] ;
290 -> 291 ;
292 [label="mse = 0.0\nsamples = 1\nvalue = 358500.0", fillcolor="#fefcfb"] ;
290 -> 292 ;
293 [label="Longtitude <= 144.974\nmse = 364388888.889\nsamples = 3\nvalue = 415166.667", fillcolor="#fefcfa"] ;
281 -> 293 ;
294 [label="Longtitude <= 144.967\nmse = 90250000.0\nsamples = 2\nvalue = 427500.0", fillcolor="#fefbf9"] ;
293 -> 294 ;
295 [label="mse = 0.0\nsamples = 1\nvalue = 418000.0", fillcolor="#fefbf9"] ;
294 -> 295 ;
296 [label="mse = 0.0\nsamples = 1\nvalue = 437000.0", fillcolor="#fefbf9"] ;
294 -> 296 ;
297 [label="mse = 0.0\nsamples = 1\nvalue = 390500.0", fillcolor="#fefcfa"] ;
293 -> 297 ;
298 [label="mse = 0.0\nsamples = 1\nvalue = 312000.0", fillcolor="#fffdfc"] ;
280 -> 298 ;
299 [label="Longtitude <= 144.948\nmse = 200000000.0\nsamples = 3\nvalue = 320000.0", fillcolor="#fffdfc"] ;
279 -> 299 ;
300 [label="mse = 0.0\nsamples = 1\nvalue = 300000.0", fillcolor="#fffdfc"] ;
299 -> 300 ;
301 [label="mse = 0.0\nsamples = 2\nvalue = 330000.0", fillcolor="#fffdfb"] ;
299 -> 301 ;
302 [label="Longtitude <= 144.915\nmse = 2608661875.0\nsamples = 20\nvalue = 287025.0", fillcolor="#fffdfc"] ;
264 -> 302 ;
303 [label="Lattitude <= -37.755\nmse = 2209340000.0\nsamples = 5\nvalue = 355600.0", fillcolor="#fefcfb"] ;
302 -> 303 ;
304 [label="Longtitude <= 144.913\nmse = 776055555.556\nsamples = 3\nvalue = 388833.333", fillcolor="#fefcfa"] ;
303 -> 304 ;
305 [label="Lattitude <= -37.761\nmse = 100000000.0\nsamples = 2\nvalue = 370000.0", fillcolor="#fefcfb"] ;
304 -> 305 ;
306 [label="mse = 0.0\nsamples = 1\nvalue = 360000.0", fillcolor="#fefcfb"] ;
305 -> 306 ;
307 [label="mse = 0.0\nsamples = 1\nvalue = 380000.0", fillcolor="#fefcfa"] ;
305 -> 307 ;
308 [label="mse = 0.0\nsamples = 1\nvalue = 426500.0", fillcolor="#fefbf9"] ;
304 -> 308 ;
309 [label="Longtitude <= 144.912\nmse = 217562500.0\nsamples = 2\nvalue = 305750.0", fillcolor="#fffdfc"] ;
303 -> 309 ;
310 [label="mse = 0.0\nsamples = 1\nvalue = 320500.0", fillcolor="#fffdfc"] ;
309 -> 310 ;
311 [label="mse = 0.0\nsamples = 1\nvalue = 291000.0", fillcolor="#fffdfc"] ;
309 -> 311 ;
312 [label="Lattitude <= -37.747\nmse = 651755555.556\nsamples = 15\nvalue = 264166.667", fillcolor="#fffefd"] ;
302 -> 312 ;
313 [label="Longtitude <= 144.918\nmse = 539118055.556\nsamples = 12\nvalue = 271083.333", fillcolor="#fffefd"] ;
312 -> 313 ;
314 [label="mse = 0.0\nsamples = 1\nvalue = 222000.0", fillcolor="#fffefe"] ;
313 -> 314 ;
315 [label="Lattitude <= -37.764\nmse = 349202479.339\nsamples = 11\nvalue = 275545.455", fillcolor="#fffdfd"] ;
313 -> 315 ;
316 [label="Lattitude <= -37.767\nmse = 306250000.0\nsamples = 2\nvalue = 302500.0", fillcolor="#fffdfc"] ;
315 -> 316 ;
317 [label="mse = 0.0\nsamples = 1\nvalue = 285000.0", fillcolor="#fffdfc"] ;
316 -> 317 ;
318 [label="mse = 0.0\nsamples = 1\nvalue = 320000.0", fillcolor="#fffdfc"] ;
316 -> 318 ;
319 [label="Lattitude <= -37.75\nmse = 161413580.247\nsamples = 9\nvalue = 269555.556", fillcolor="#fffefd"] ;
315 -> 319 ;
320 [label="Longtitude <= 144.923\nmse = 166250000.0\nsamples = 8\nvalue = 268250.0", fillcolor="#fffefd"] ;
319 -> 320 ;
321 [label="mse = 0.0\nsamples = 1\nvalue = 250000.0", fillcolor="#fffefd"] ;
320 -> 321 ;
322 [label="Lattitude <= -37.758\nmse = 135622448.98\nsamples = 7\nvalue = 270857.143", fillcolor="#fffefd"] ;
320 -> 322 ;
323 [label="Longtitude <= 144.944\nmse = 84260000.0\nsamples = 5\nvalue = 267800.0", fillcolor="#fffefd"] ;
322 -> 323 ;
324 [label="mse = 0.0\nsamples = 1\nvalue = 252000.0", fillcolor="#fffefd"] ;
323 -> 324 ;
325 [label="Lattitude <= -37.759\nmse = 27312500.0\nsamples = 4\nvalue = 271750.0", fillcolor="#fffefd"] ;
323 -> 325 ;
326 [label="Lattitude <= -37.761\nmse = 12250000.0\nsamples = 2\nvalue = 276000.0", fillcolor="#fffdfd"] ;
325 -> 326 ;
327 [label="mse = 0.0\nsamples = 1\nvalue = 272500.0", fillcolor="#fffefd"] ;
326 -> 327 ;
328 [label="mse = 0.0\nsamples = 1\nvalue = 279500.0", fillcolor="#fffdfd"] ;
326 -> 328 ;
329 [label="Longtitude <= 144.97\nmse = 6250000.0\nsamples = 2\nvalue = 267500.0", fillcolor="#fffefd"] ;
325 -> 329 ;
330 [label="mse = 0.0\nsamples = 1\nvalue = 265000.0", fillcolor="#fffefd"] ;
329 -> 330 ;
331 [label="mse = 0.0\nsamples = 1\nvalue = 270000.0", fillcolor="#fffefd"] ;
329 -> 331 ;
332 [label="mse = 182250000.0\nsamples = 2\nvalue = 278500.0", fillcolor="#fffdfd"] ;
322 -> 332 ;
333 [label="mse = 0.0\nsamples = 1\nvalue = 280000.0", fillcolor="#fffdfd"] ;
319 -> 333 ;
334 [label="Lattitude <= -37.713\nmse = 145500000.0\nsamples = 3\nvalue = 236500.0", fillcolor="#fffefe"] ;
312 -> 334 ;
335 [label="Landsize <= 24.5\nmse = 14062500.0\nsamples = 2\nvalue = 244750.0", fillcolor="#fffefd"] ;
334 -> 335 ;
336 [label="mse = 0.0\nsamples = 1\nvalue = 241000.0", fillcolor="#fffefd"] ;
335 -> 336 ;
337 [label="mse = 0.0\nsamples = 1\nvalue = 248500.0", fillcolor="#fffefd"] ;
335 -> 337 ;
338 [label="mse = 0.0\nsamples = 1\nvalue = 220000.0", fillcolor="#fffefe"] ;
334 -> 338 ;
339 [label="Lattitude <= -37.754\nmse = 3423479166.667\nsamples = 12\nvalue = 387250.0", fillcolor="#fefcfa"] ;
263 -> 339 ;
340 [label="Longtitude <= 144.998\nmse = 1913336734.694\nsamples = 7\nvalue = 423642.857", fillcolor="#fefbf9"] ;
339 -> 340 ;
341 [label="mse = 0.0\nsamples = 1\nvalue = 517500.0", fillcolor="#fefaf7"] ;
340 -> 341 ;
342 [label="Lattitude <= -37.783\nmse = 519333333.333\nsamples = 6\nvalue = 408000.0", fillcolor="#fefcfa"] ;
340 -> 342 ;
343 [label="mse = 0.0\nsamples = 1\nvalue = 435000.0", fillcolor="#fefbf9"] ;
342 -> 343 ;
344 [label="Longtitude <= 145.031\nmse = 448240000.0\nsamples = 5\nvalue = 402600.0", fillcolor="#fefcfa"] ;
342 -> 344 ;
345 [label="Longtitude <= 145.015\nmse = 454500000.0\nsamples = 4\nvalue = 398000.0", fillcolor="#fefcfa"] ;
344 -> 345 ;
346 [label="Longtitude <= 145.005\nmse = 257555555.556\nsamples = 3\nvalue = 407333.333", fillcolor="#fefcfa"] ;
345 -> 346 ;
347 [label="mse = 342250000.0\nsamples = 2\nvalue = 403500.0", fillcolor="#fefcfa"] ;
346 -> 347 ;
348 [label="mse = 0.0\nsamples = 1\nvalue = 415000.0", fillcolor="#fefcfa"] ;
346 -> 348 ;
349 [label="mse = 0.0\nsamples = 1\nvalue = 370000.0", fillcolor="#fefcfb"] ;
345 -> 349 ;
350 [label="mse = 0.0\nsamples = 1\nvalue = 421000.0", fillcolor="#fefbf9"] ;
344 -> 350 ;
351 [label="Lattitude <= -37.749\nmse = 1087560000.0\nsamples = 5\nvalue = 336300.0", fillcolor="#fffdfb"] ;
339 -> 351 ;
352 [label="Longtitude <= 145.01\nmse = 947671875.0\nsamples = 4\nvalue = 345375.0", fillcolor="#fefcfb"] ;
351 -> 352 ;
353 [label="Lattitude <= -37.754\nmse = 484222222.222\nsamples = 3\nvalue = 359333.333", fillcolor="#fefcfb"] ;
352 -> 353 ;
354 [label="mse = 306250000.0\nsamples = 2\nvalue = 347500.0", fillcolor="#fefcfb"] ;
353 -> 354 ;
355 [label="mse = 0.0\nsamples = 1\nvalue = 383000.0", fillcolor="#fefcfa"] ;
353 -> 355 ;
356 [label="mse = 0.0\nsamples = 1\nvalue = 303500.0", fillcolor="#fffdfc"] ;
352 -> 356 ;
357 [label="mse = 0.0\nsamples = 1\nvalue = 300000.0", fillcolor="#fffdfc"] ;
351 -> 357 ;
358 [label="Landsize <= 88.0\nmse = 48096328125.0\nsamples = 6\nvalue = 685375.0", fillcolor="#fdf8f3"] ;
4 -> 358 ;
359 [label="Longtitude <= 144.991\nmse = 35334660000.0\nsamples = 5\nvalue = 746450.0", fillcolor="#fdf7f2"] ;
358 -> 359 ;
360 [label="Lattitude <= -37.784\nmse = 26112500000.0\nsamples = 3\nvalue = 852500.0", fillcolor="#fdf5f0"] ;
359 -> 360 ;
361 [label="Landsize <= 84.0\nmse = 351562500.0\nsamples = 2\nvalue = 966250.0", fillcolor="#fdf4ed"] ;
360 -> 361 ;
362 [label="mse = 0.0\nsamples = 1\nvalue = 985000.0", fillcolor="#fdf3ed"] ;
361 -> 362 ;
363 [label="mse = 0.0\nsamples = 1\nvalue = 947500.0", fillcolor="#fdf4ee"] ;
361 -> 363 ;
364 [label="mse = 0.0\nsamples = 1\nvalue = 625000.0", fillcolor="#fef9f5"] ;
360 -> 364 ;
365 [label="Landsize <= 75.0\nmse = 6993140625.0\nsamples = 2\nvalue = 587375.0", fillcolor="#fef9f6"] ;
359 -> 365 ;
366 [label="mse = 0.0\nsamples = 1\nvalue = 671000.0", fillcolor="#fef8f4"] ;
365 -> 366 ;
367 [label="mse = 0.0\nsamples = 1\nvalue = 503750.0", fillcolor="#fefaf8"] ;
365 -> 367 ;
368 [label="mse = 0.0\nsamples = 1\nvalue = 380000.0", fillcolor="#fefcfa"] ;
358 -> 368 ;
369 [label="Bathroom <= 1.5\nmse = 42083226608.041\nsamples = 516\nvalue = 607199.349", fillcolor="#fef9f5"] ;
3 -> 369 ;
370 [label="Longtitude <= 144.94\nmse = 30461536860.96\nsamples = 423\nvalue = 571849.56", fillcolor="#fef9f6"] ;
369 -> 370 ;
371 [label="Lattitude <= -37.838\nmse = 10389495615.261\nsamples = 94\nvalue = 449222.809", fillcolor="#fefbf9"] ;
370 -> 371 ;
372 [label="Landsize <= 42.0\nmse = 13125500000.0\nsamples = 13\nvalue = 524500.0", fillcolor="#fefaf7"] ;
371 -> 372 ;
373 [label="Longtitude <= 144.895\nmse = 5793644097.222\nsamples = 12\nvalue = 499041.667", fillcolor="#fefaf8"] ;
372 -> 373 ;
374 [label="Longtitude <= 144.884\nmse = 1929500000.0\nsamples = 4\nvalue = 413000.0", fillcolor="#fefcfa"] ;
373 -> 374 ;
375 [label="mse = 0.0\nsamples = 1\nvalue = 485000.0", fillcolor="#fefbf8"] ;
374 -> 375 ;
376 [label="Lattitude <= -37.858\nmse = 268666666.667\nsamples = 3\nvalue = 389000.0", fillcolor="#fefcfa"] ;
374 -> 376 ;
377 [label="mse = 0.0\nsamples = 1\nvalue = 412000.0", fillcolor="#fefcfa"] ;
376 -> 377 ;
378 [label="Lattitude <= -37.853\nmse = 6250000.0\nsamples = 2\nvalue = 377500.0", fillcolor="#fefcfa"] ;
376 -> 378 ;
379 [label="mse = 0.0\nsamples = 1\nvalue = 380000.0", fillcolor="#fefcfa"] ;
378 -> 379 ;
380 [label="mse = 0.0\nsamples = 1\nvalue = 375000.0", fillcolor="#fefcfa"] ;
378 -> 380 ;
381 [label="Longtitude <= 144.939\nmse = 2173339843.75\nsamples = 8\nvalue = 542062.5", fillcolor="#fefaf7"] ;
373 -> 381 ;
382 [label="Lattitude <= -37.859\nmse = 401387755.102\nsamples = 7\nvalue = 525928.571", fillcolor="#fefaf7"] ;
381 -> 382 ;
383 [label="Lattitude <= -37.865\nmse = 1562500.0\nsamples = 2\nvalue = 548750.0", fillcolor="#fefaf7"] ;
382 -> 383 ;
384 [label="mse = 0.0\nsamples = 1\nvalue = 550000.0", fillcolor="#fefaf6"] ;
383 -> 384 ;
385 [label="mse = 0.0\nsamples = 1\nvalue = 547500.0", fillcolor="#fefaf7"] ;
383 -> 385 ;
386 [label="Lattitude <= -37.855\nmse = 269660000.0\nsamples = 5\nvalue = 516800.0", fillcolor="#fefaf7"] ;
382 -> 386 ;
387 [label="mse = 0.0\nsamples = 1\nvalue = 491500.0", fillcolor="#fefaf8"] ;
386 -> 387 ;
388 [label="Longtitude <= 144.919\nmse = 137046875.0\nsamples = 4\nvalue = 523125.0", fillcolor="#fefaf7"] ;
386 -> 388 ;
389 [label="mse = 217562500.0\nsamples = 2\nvalue = 528250.0", fillcolor="#fefaf7"] ;
388 -> 389 ;
390 [label="mse = 4000000.0\nsamples = 2\nvalue = 518000.0", fillcolor="#fefaf7"] ;
388 -> 390 ;
391 [label="mse = 0.0\nsamples = 1\nvalue = 655000.0", fillcolor="#fef8f4"] ;
381 -> 391 ;
392 [label="mse = 0.0\nsamples = 1\nvalue = 830000.0", fillcolor="#fdf6f0"] ;
372 -> 392 ;
393 [label="Lattitude <= -37.722\nmse = 8894957326.944\nsamples = 81\nvalue = 437141.284", fillcolor="#fefbf9"] ;
371 -> 393 ;
394 [label="Lattitude <= -37.76\nmse = 8396777234.233\nsamples = 78\nvalue = 442544.154", fillcolor="#fefbf9"] ;
393 -> 394 ;
395 [label="Lattitude <= -37.791\nmse = 6731991440.609\nsamples = 53\nvalue = 423810.264", fillcolor="#fefbf9"] ;
394 -> 395 ;
396 [label="Lattitude <= -37.794\nmse = 11036809763.96\nsamples = 20\nvalue = 456172.2", fillcolor="#fefbf9"] ;
395 -> 396 ;
397 [label="Longtitude <= 144.896\nmse = 5858092521.333\nsamples = 18\nvalue = 434191.333", fillcolor="#fefbf9"] ;
396 -> 397 ;
398 [label="Longtitude <= 144.895\nmse = 6172045562.24\nsamples = 10\nvalue = 463294.4", fillcolor="#fefbf8"] ;
397 -> 398 ;
399 [label="Longtitude <= 144.849\nmse = 2727686938.775\nsamples = 7\nvalue = 435514.286", fillcolor="#fefbf9"] ;
398 -> 399 ;
400 [label="mse = 0.0\nsamples = 1\nvalue = 372100.0", fillcolor="#fefcfa"] ;
399 -> 400 ;
401 [label="Longtitude <= 144.894\nmse = 2400368055.556\nsamples = 6\nvalue = 446083.333", fillcolor="#fefbf9"] ;
399 -> 401 ;
402 [label="Longtitude <= 144.89\nmse = 2302240000.0\nsamples = 5\nvalue = 455900.0", fillcolor="#fefbf9"] ;
401 -> 402 ;
403 [label="Longtitude <= 144.886\nmse = 1020171875.0\nsamples = 4\nvalue = 436625.0", fillcolor="#fefbf9"] ;
402 -> 403 ;
404 [label="Longtitude <= 144.88\nmse = 590166666.667\nsamples = 3\nvalue = 450500.0", fillcolor="#fefbf9"] ;
403 -> 404 ;
405 [label="Landsize <= 38.5\nmse = 210250000.0\nsamples = 2\nvalue = 435500.0", fillcolor="#fefbf9"] ;
404 -> 405 ;
406 [label="mse = 0.0\nsamples = 1\nvalue = 450000.0", fillcolor="#fefbf9"] ;
405 -> 406 ;
407 [label="mse = 0.0\nsamples = 1\nvalue = 421000.0", fillcolor="#fefbf9"] ;
405 -> 407 ;
408 [label="mse = 0.0\nsamples = 1\nvalue = 480500.0", fillcolor="#fefbf8"] ;
404 -> 408 ;
409 [label="mse = 0.0\nsamples = 1\nvalue = 395000.0", fillcolor="#fefcfa"] ;
403 -> 409 ;
410 [label="mse = 0.0\nsamples = 1\nvalue = 533000.0", fillcolor="#fefaf7"] ;
402 -> 410 ;
411 [label="mse = 0.0\nsamples = 1\nvalue = 397000.0", fillcolor="#fefcfa"] ;
401 -> 411 ;
412 [label="Longtitude <= 144.896\nmse = 8206500963.556\nsamples = 3\nvalue = 528114.667", fillcolor="#fefaf7"] ;
398 -> 412 ;
413 [label="mse = 0.0\nsamples = 1\nvalue = 650000.0", fillcolor="#fef8f4"] ;
412 -> 413 ;
414 [label="Lattitude <= -37.806\nmse = 1167725584.0\nsamples = 2\nvalue = 467172.0", fillcolor="#fefbf8"] ;
412 -> 414 ;
415 [label="mse = 0.0\nsamples = 1\nvalue = 501344.0", fillcolor="#fefaf8"] ;
414 -> 415 ;
416 [label="mse = 0.0\nsamples = 1\nvalue = 433000.0", fillcolor="#fefbf9"] ;
414 -> 416 ;
417 [label="Longtitude <= 144.897\nmse = 3083496093.75\nsamples = 8\nvalue = 397812.5", fillcolor="#fefcfa"] ;
397 -> 417 ;
418 [label="Landsize <= 23.5\nmse = 772222222.222\nsamples = 3\nvalue = 343333.333", fillcolor="#fefdfb"] ;
417 -> 418 ;
419 [label="Longtitude <= 144.897\nmse = 56250000.0\nsamples = 2\nvalue = 362500.0", fillcolor="#fefcfb"] ;
418 -> 419 ;
420 [label="mse = 0.0\nsamples = 1\nvalue = 370000.0", fillcolor="#fefcfb"] ;
419 -> 420 ;
421 [label="mse = 0.0\nsamples = 1\nvalue = 355000.0", fillcolor="#fefcfb"] ;
419 -> 421 ;
422 [label="mse = 0.0\nsamples = 1\nvalue = 305000.0", fillcolor="#fffdfc"] ;
418 -> 422 ;
423 [label="Longtitude <= 144.925\nmse = 1621000000.0\nsamples = 5\nvalue = 430500.0", fillcolor="#fefbf9"] ;
417 -> 423 ;
424 [label="Lattitude <= -37.807\nmse = 825000000.0\nsamples = 4\nvalue = 415000.0", fillcolor="#fefcfa"] ;
423 -> 424 ;
425 [label="mse = 0.0\nsamples = 1\nvalue = 450000.0", fillcolor="#fefbf9"] ;
424 -> 425 ;
426 [label="Longtitude <= 144.904\nmse = 555555555.556\nsamples = 3\nvalue = 403333.333", fillcolor="#fefcfa"] ;
424 -> 426 ;
427 [label="mse = 0.0\nsamples = 1\nvalue = 370000.0", fillcolor="#fefcfb"] ;
426 -> 427 ;
428 [label="mse = 0.0\nsamples = 2\nvalue = 420000.0", fillcolor="#fefbf9"] ;
426 -> 428 ;
429 [label="mse = 0.0\nsamples = 1\nvalue = 492500.0", fillcolor="#fefaf8"] ;
423 -> 429 ;
430 [label="Lattitude <= -37.792\nmse = 14161000000.0\nsamples = 2\nvalue = 654000.0", fillcolor="#fef8f4"] ;
396 -> 430 ;
431 [label="mse = 0.0\nsamples = 1\nvalue = 773000.0", fillcolor="#fdf6f1"] ;
430 -> 431 ;
432 [label="mse = 0.0\nsamples = 1\nvalue = 535000.0", fillcolor="#fefaf7"] ;
430 -> 432 ;
433 [label="Longtitude <= 144.918\nmse = 3103605142.332\nsamples = 33\nvalue = 404196.97", fillcolor="#fefcfa"] ;
395 -> 433 ;
434 [label="Lattitude <= -37.789\nmse = 2467440000.0\nsamples = 15\nvalue = 385600.0", fillcolor="#fefcfa"] ;
433 -> 434 ;
435 [label="mse = 0.0\nsamples = 1\nvalue = 281000.0", fillcolor="#fffdfd"] ;
434 -> 435 ;
436 [label="Landsize <= 21.5\nmse = 1806352040.816\nsamples = 14\nvalue = 393071.429", fillcolor="#fefcfa"] ;
434 -> 436 ;
437 [label="Lattitude <= -37.776\nmse = 1808000000.0\nsamples = 9\nvalue = 376666.667", fillcolor="#fefcfa"] ;
436 -> 437 ;
438 [label="Lattitude <= -37.779\nmse = 49000000.0\nsamples = 2\nvalue = 342000.0", fillcolor="#fefdfb"] ;
437 -> 438 ;
439 [label="mse = 0.0\nsamples = 1\nvalue = 349000.0", fillcolor="#fefcfb"] ;
438 -> 439 ;
440 [label="mse = 0.0\nsamples = 1\nvalue = 335000.0", fillcolor="#fffdfb"] ;
438 -> 440 ;
441 [label="Longtitude <= 144.915\nmse = 1869102040.816\nsamples = 7\nvalue = 386571.429", fillcolor="#fefcfa"] ;
437 -> 441 ;
442 [label="Longtitude <= 144.912\nmse = 1558333333.333\nsamples = 6\nvalue = 396000.0", fillcolor="#fefcfa"] ;
441 -> 442 ;
443 [label="Longtitude <= 144.909\nmse = 1405360000.0\nsamples = 5\nvalue = 387200.0", fillcolor="#fefcfa"] ;
442 -> 443 ;
444 [label="Lattitude <= -37.771\nmse = 734250000.0\nsamples = 4\nvalue = 401500.0", fillcolor="#fefcfa"] ;
443 -> 444 ;
445 [label="mse = 0.0\nsamples = 1\nvalue = 355000.0", fillcolor="#fefcfb"] ;
444 -> 445 ;
446 [label="Longtitude <= 144.876\nmse = 18000000.0\nsamples = 3\nvalue = 417000.0", fillcolor="#fefbf9"] ;
444 -> 446 ;
447 [label="mse = 0.0\nsamples = 1\nvalue = 411000.0", fillcolor="#fefcfa"] ;
446 -> 447 ;
448 [label="mse = 0.0\nsamples = 2\nvalue = 420000.0", fillcolor="#fefbf9"] ;
446 -> 448 ;
449 [label="mse = 0.0\nsamples = 1\nvalue = 330000.0", fillcolor="#fffdfb"] ;
443 -> 449 ;
450 [label="mse = 0.0\nsamples = 1\nvalue = 440000.0", fillcolor="#fefbf9"] ;
442 -> 450 ;
451 [label="mse = 0.0\nsamples = 1\nvalue = 330000.0", fillcolor="#fffdfb"] ;
441 -> 451 ;
452 [label="Lattitude <= -37.781\nmse = 447040000.0\nsamples = 5\nvalue = 422600.0", fillcolor="#fefbf9"] ;
436 -> 452 ;
453 [label="mse = 0.0\nsamples = 1\nvalue = 455000.0", fillcolor="#fefbf9"] ;
452 -> 453 ;
454 [label="Lattitude <= -37.774\nmse = 230750000.0\nsamples = 4\nvalue = 414500.0", fillcolor="#fefcfa"] ;
452 -> 454 ;
455 [label="mse = 400000000.0\nsamples = 2\nvalue = 420000.0", fillcolor="#fefbf9"] ;
454 -> 455 ;
456 [label="Landsize <= 69.0\nmse = 1000000.0\nsamples = 2\nvalue = 409000.0", fillcolor="#fefcfa"] ;
454 -> 456 ;
457 [label="mse = 0.0\nsamples = 1\nvalue = 410000.0", fillcolor="#fefcfa"] ;
456 -> 457 ;
458 [label="mse = 0.0\nsamples = 1\nvalue = 408000.0", fillcolor="#fefcfa"] ;
456 -> 458 ;
459 [label="Longtitude <= 144.938\nmse = 3105364969.136\nsamples = 18\nvalue = 419694.444", fillcolor="#fefbf9"] ;
433 -> 459 ;
460 [label="Lattitude <= -37.765\nmse = 2467993333.333\nsamples = 15\nvalue = 433300.0", fillcolor="#fefbf9"] ;
459 -> 460 ;
461 [label="Longtitude <= 144.922\nmse = 1602016581.633\nsamples = 14\nvalue = 424964.286", fillcolor="#fefbf9"] ;
460 -> 461 ;
462 [label="Longtitude <= 144.921\nmse = 157555555.556\nsamples = 3\nvalue = 459666.667", fillcolor="#fefbf9"] ;
461 -> 462 ;
463 [label="Longtitude <= 144.92\nmse = 2250000.0\nsamples = 2\nvalue = 468500.0", fillcolor="#fefbf8"] ;
462 -> 463 ;
464 [label="mse = 0.0\nsamples = 1\nvalue = 470000.0", fillcolor="#fefbf8"] ;
463 -> 464 ;
465 [label="mse = 0.0\nsamples = 1\nvalue = 467000.0", fillcolor="#fefbf8"] ;
463 -> 465 ;
466 [label="mse = 0.0\nsamples = 1\nvalue = 442000.0", fillcolor="#fefbf9"] ;
462 -> 466 ;
467 [label="Longtitude <= 144.922\nmse = 1577954545.455\nsamples = 11\nvalue = 415500.0", fillcolor="#fefbf9"] ;
461 -> 467 ;
468 [label="mse = 0.0\nsamples = 1\nvalue = 348000.0", fillcolor="#fefcfb"] ;
467 -> 468 ;
469 [label="Lattitude <= -37.783\nmse = 1234562500.0\nsamples = 10\nvalue = 422250.0", fillcolor="#fefbf9"] ;
467 -> 469 ;
470 [label="Lattitude <= -37.786\nmse = 431250000.0\nsamples = 4\nvalue = 397500.0", fillcolor="#fefcfa"] ;
469 -> 470 ;
471 [label="Longtitude <= 144.923\nmse = 105555555.556\nsamples = 3\nvalue = 408333.333", fillcolor="#fefcfa"] ;
470 -> 471 ;
472 [label="mse = 0.0\nsamples = 1\nvalue = 410000.0", fillcolor="#fefcfa"] ;
471 -> 472 ;
473 [label="mse = 156250000.0\nsamples = 2\nvalue = 407500.0", fillcolor="#fefcfa"] ;
471 -> 473 ;
474 [label="mse = 0.0\nsamples = 1\nvalue = 365000.0", fillcolor="#fefcfb"] ;
470 -> 474 ;
475 [label="Longtitude <= 144.924\nmse = 1089479166.667\nsamples = 6\nvalue = 438750.0", fillcolor="#fefbf9"] ;
469 -> 475 ;
476 [label="mse = 0.0\nsamples = 1\nvalue = 391000.0", fillcolor="#fefcfa"] ;
475 -> 476 ;
477 [label="Longtitude <= 144.927\nmse = 760160000.0\nsamples = 5\nvalue = 448300.0", fillcolor="#fefbf9"] ;
475 -> 477 ;
478 [label="Longtitude <= 144.925\nmse = 930250000.0\nsamples = 2\nvalue = 469500.0", fillcolor="#fefbf8"] ;
477 -> 478 ;
479 [label="mse = 0.0\nsamples = 1\nvalue = 439000.0", fillcolor="#fefbf9"] ;
478 -> 479 ;
480 [label="mse = 0.0\nsamples = 1\nvalue = 500000.0", fillcolor="#fefaf8"] ;
478 -> 480 ;
481 [label="Longtitude <= 144.932\nmse = 147388888.889\nsamples = 3\nvalue = 434166.667", fillcolor="#fefbf9"] ;
477 -> 481 ;
482 [label="Longtitude <= 144.931\nmse = 81000000.0\nsamples = 2\nvalue = 441000.0", fillcolor="#fefbf9"] ;
481 -> 482 ;
483 [label="mse = 0.0\nsamples = 1\nvalue = 432000.0", fillcolor="#fefbf9"] ;
482 -> 483 ;
484 [label="mse = 0.0\nsamples = 1\nvalue = 450000.0", fillcolor="#fefbf9"] ;
482 -> 484 ;
485 [label="mse = 0.0\nsamples = 1\nvalue = 420500.0", fillcolor="#fefbf9"] ;
481 -> 485 ;
486 [label="mse = 0.0\nsamples = 1\nvalue = 550000.0", fillcolor="#fefaf6"] ;
460 -> 486 ;
487 [label="Lattitude <= -37.773\nmse = 738888888.889\nsamples = 3\nvalue = 351666.667", fillcolor="#fefcfb"] ;
459 -> 487 ;
488 [label="mse = 506250000.0\nsamples = 2\nvalue = 337500.0", fillcolor="#fffdfb"] ;
487 -> 488 ;
489 [label="mse = 0.0\nsamples = 1\nvalue = 380000.0", fillcolor="#fefcfa"] ;
487 -> 489 ;
490 [label="Lattitude <= -37.76\nmse = 9604742400.0\nsamples = 25\nvalue = 482260.0", fillcolor="#fefbf8"] ;
394 -> 490 ;
491 [label="mse = 0.0\nsamples = 1\nvalue = 670000.0", fillcolor="#fef8f4"] ;
490 -> 491 ;
492 [label="Lattitude <= -37.742\nmse = 8475152343.75\nsamples = 24\nvalue = 474437.5", fillcolor="#fefbf8"] ;
490 -> 492 ;
493 [label="Lattitude <= -37.748\nmse = 6337156875.0\nsamples = 20\nvalue = 458925.0", fillcolor="#fefbf9"] ;
492 -> 493 ;
494 [label="Lattitude <= -37.75\nmse = 6346495555.556\nsamples = 15\nvalue = 477766.667", fillcolor="#fefbf8"] ;
493 -> 494 ;
495 [label="Longtitude <= 144.91\nmse = 5022020833.333\nsamples = 12\nvalue = 458250.0", fillcolor="#fefbf9"] ;
494 -> 495 ;
496 [label="Longtitude <= 144.905\nmse = 6066666666.667\nsamples = 3\nvalue = 520000.0", fillcolor="#fefaf7"] ;
495 -> 496 ;
497 [label="Landsize <= 35.0\nmse = 25000000.0\nsamples = 2\nvalue = 465000.0", fillcolor="#fefbf8"] ;
496 -> 497 ;
498 [label="mse = 0.0\nsamples = 1\nvalue = 460000.0", fillcolor="#fefbf8"] ;
497 -> 498 ;
499 [label="mse = 0.0\nsamples = 1\nvalue = 470000.0", fillcolor="#fefbf8"] ;
497 -> 499 ;
500 [label="mse = 0.0\nsamples = 1\nvalue = 630000.0", fillcolor="#fef8f5"] ;
496 -> 500 ;
501 [label="Longtitude <= 144.928\nmse = 2979111111.111\nsamples = 9\nvalue = 437666.667", fillcolor="#fefbf9"] ;
495 -> 501 ;
502 [label="Lattitude <= -37.751\nmse = 1516000000.0\nsamples = 5\nvalue = 413000.0", fillcolor="#fefcfa"] ;
501 -> 502 ;
503 [label="Longtitude <= 144.922\nmse = 275000000.0\nsamples = 4\nvalue = 395000.0", fillcolor="#fefcfa"] ;
502 -> 503 ;
504 [label="Longtitude <= 144.915\nmse = 88888888.889\nsamples = 3\nvalue = 403333.333", fillcolor="#fefcfa"] ;
503 -> 504 ;
505 [label="mse = 0.0\nsamples = 1\nvalue = 390000.0", fillcolor="#fefcfa"] ;
504 -> 505 ;
506 [label="mse = 0.0\nsamples = 2\nvalue = 410000.0", fillcolor="#fefcfa"] ;
504 -> 506 ;
507 [label="mse = 0.0\nsamples = 1\nvalue = 370000.0", fillcolor="#fefcfb"] ;
503 -> 507 ;
508 [label="mse = 0.0\nsamples = 1\nvalue = 485000.0", fillcolor="#fefbf8"] ;
502 -> 508 ;
509 [label="Longtitude <= 144.933\nmse = 3096750000.0\nsamples = 4\nvalue = 468500.0", fillcolor="#fefbf8"] ;
501 -> 509 ;
510 [label="mse = 0.0\nsamples = 1\nvalue = 550000.0", fillcolor="#fefaf6"] ;
509 -> 510 ;
511 [label="Longtitude <= 144.938\nmse = 1176888888.889\nsamples = 3\nvalue = 441333.333", fillcolor="#fefbf9"] ;
509 -> 511 ;
512 [label="Landsize <= 36.5\nmse = 400000000.0\nsamples = 2\nvalue = 420000.0", fillcolor="#fefbf9"] ;
511 -> 512 ;
513 [label="mse = 0.0\nsamples = 1\nvalue = 440000.0", fillcolor="#fefbf9"] ;
512 -> 513 ;
514 [label="mse = 0.0\nsamples = 1\nvalue = 400000.0", fillcolor="#fefcfa"] ;
512 -> 514 ;
515 [label="mse = 0.0\nsamples = 1\nvalue = 484000.0", fillcolor="#fefbf8"] ;
511 -> 515 ;
516 [label="Lattitude <= -37.749\nmse = 4026388888.889\nsamples = 3\nvalue = 555833.333", fillcolor="#fef9f6"] ;
494 -> 516 ;
517 [label="mse = 0.0\nsamples = 1\nvalue = 645000.0", fillcolor="#fef8f4"] ;
516 -> 517 ;
518 [label="Longtitude <= 144.914\nmse = 76562500.0\nsamples = 2\nvalue = 511250.0", fillcolor="#fefaf7"] ;
516 -> 518 ;
519 [label="mse = 0.0\nsamples = 1\nvalue = 520000.0", fillcolor="#fefaf7"] ;
518 -> 519 ;
520 [label="mse = 0.0\nsamples = 1\nvalue = 502500.0", fillcolor="#fefaf8"] ;
518 -> 520 ;
521 [label="Lattitude <= -37.744\nmse = 2049040000.0\nsamples = 5\nvalue = 402400.0", fillcolor="#fefcfa"] ;
493 -> 521 ;
522 [label="Lattitude <= -37.747\nmse = 1344500000.0\nsamples = 4\nvalue = 418000.0", fillcolor="#fefbf9"] ;
521 -> 522 ;
523 [label="mse = 0.0\nsamples = 1\nvalue = 370000.0", fillcolor="#fefcfb"] ;
522 -> 523 ;
524 [label="Longtitude <= 144.898\nmse = 768666666.667\nsamples = 3\nvalue = 434000.0", fillcolor="#fefbf9"] ;
522 -> 524 ;
525 [label="mse = 0.0\nsamples = 1\nvalue = 457000.0", fillcolor="#fefbf9"] ;
524 -> 525 ;
526 [label="Lattitude <= -37.746\nmse = 756250000.0\nsamples = 2\nvalue = 422500.0", fillcolor="#fefbf9"] ;
524 -> 526 ;
527 [label="mse = 0.0\nsamples = 1\nvalue = 395000.0", fillcolor="#fefcfa"] ;
526 -> 527 ;
528 [label="mse = 0.0\nsamples = 1\nvalue = 450000.0", fillcolor="#fefbf9"] ;
526 -> 528 ;
529 [label="mse = 0.0\nsamples = 1\nvalue = 340000.0", fillcolor="#fefdfb"] ;
521 -> 529 ;
530 [label="Lattitude <= -37.74\nmse = 11946000000.0\nsamples = 4\nvalue = 552000.0", fillcolor="#fefaf6"] ;
492 -> 530 ;
531 [label="mse = 0.0\nsamples = 1\nvalue = 736000.0", fillcolor="#fdf7f2"] ;
530 -> 531 ;
532 [label="Landsize <= 44.0\nmse = 880888888.889\nsamples = 3\nvalue = 490666.667", fillcolor="#fefaf8"] ;
530 -> 532 ;
533 [label="Lattitude <= -37.733\nmse = 81000000.0\nsamples = 2\nvalue = 511000.0", fillcolor="#fefaf7"] ;
532 -> 533 ;
534 [label="mse = 0.0\nsamples = 1\nvalue = 502000.0", fillcolor="#fefaf8"] ;
533 -> 534 ;
535 [label="mse = 0.0\nsamples = 1\nvalue = 520000.0", fillcolor="#fefaf7"] ;
533 -> 535 ;
536 [label="mse = 0.0\nsamples = 1\nvalue = 450000.0", fillcolor="#fefbf9"] ;
532 -> 536 ;
537 [label="Longtitude <= 144.918\nmse = 1355555555.556\nsamples = 3\nvalue = 296666.667", fillcolor="#fffdfc"] ;
393 -> 537 ;
538 [label="Lattitude <= -37.703\nmse = 400000000.0\nsamples = 2\nvalue = 320000.0", fillcolor="#fffdfc"] ;
537 -> 538 ;
539 [label="mse = 0.0\nsamples = 1\nvalue = 340000.0", fillcolor="#fefdfb"] ;
538 -> 539 ;
540 [label="mse = 0.0\nsamples = 1\nvalue = 300000.0", fillcolor="#fffdfc"] ;
538 -> 540 ;
541 [label="mse = 0.0\nsamples = 1\nvalue = 250000.0", fillcolor="#fffefd"] ;
537 -> 541 ;
542 [label="Lattitude <= -37.776\nmse = 30672492226.928\nsamples = 329\nvalue = 606885.775", fillcolor="#fef9f5"] ;
370 -> 542 ;
543 [label="Longtitude <= 144.996\nmse = 32021455351.379\nsamples = 282\nvalue = 623590.936", fillcolor="#fef9f5"] ;
542 -> 543 ;
544 [label="Landsize <= 40.5\nmse = 47961376110.869\nsamples = 122\nvalue = 673072.82", fillcolor="#fef8f4"] ;
543 -> 544 ;
545 [label="Lattitude <= -37.813\nmse = 42784519121.284\nsamples = 115\nvalue = 653477.252", fillcolor="#fef8f4"] ;
544 -> 545 ;
546 [label="Lattitude <= -37.912\nmse = 29533440955.556\nsamples = 75\nvalue = 615723.333", fillcolor="#fef9f5"] ;
545 -> 546 ;
547 [label="mse = 0.0\nsamples = 1\nvalue = 1100000.0", fillcolor="#fcf2ea"] ;
546 -> 547 ;
548 [label="Lattitude <= -37.824\nmse = 26720472162.619\nsamples = 74\nvalue = 609179.054", fillcolor="#fef9f5"] ;
546 -> 548 ;
549 [label="Longtitude <= 144.983\nmse = 25253400778.061\nsamples = 70\nvalue = 620489.286", fillcolor="#fef9f5"] ;
548 -> 549 ;
550 [label="Lattitude <= -37.872\nmse = 12451040000.0\nsamples = 25\nvalue = 573600.0", fillcolor="#fef9f6"] ;
549 -> 550 ;
551 [label="Longtitude <= 144.982\nmse = 14829687500.0\nsamples = 4\nvalue = 691250.0", fillcolor="#fdf8f3"] ;
550 -> 551 ;
552 [label="Lattitude <= -37.878\nmse = 3516666666.667\nsamples = 3\nvalue = 755000.0", fillcolor="#fdf7f2"] ;
551 -> 552 ;
553 [label="mse = 0.0\nsamples = 1\nvalue = 680000.0", fillcolor="#fdf8f4"] ;
552 -> 553 ;
554 [label="Lattitude <= -37.873\nmse = 1056250000.0\nsamples = 2\nvalue = 792500.0", fillcolor="#fdf6f1"] ;
552 -> 554 ;
555 [label="mse = 0.0\nsamples = 1\nvalue = 825000.0", fillcolor="#fdf6f0"] ;
554 -> 555 ;
556 [label="mse = 0.0\nsamples = 1\nvalue = 760000.0", fillcolor="#fdf7f2"] ;
554 -> 556 ;
557 [label="mse = 0.0\nsamples = 1\nvalue = 500000.0", fillcolor="#fefaf8"] ;
551 -> 557 ;
558 [label="Longtitude <= 144.97\nmse = 8859297052.154\nsamples = 21\nvalue = 551190.476", fillcolor="#fefaf6"] ;
550 -> 558 ;
559 [label="Lattitude <= -37.841\nmse = 3251239669.422\nsamples = 11\nvalue = 616818.182", fillcolor="#fef9f5"] ;
558 -> 559 ;
560 [label="Longtitude <= 144.945\nmse = 2904000000.0\nsamples = 5\nvalue = 661000.0", fillcolor="#fef8f4"] ;
559 -> 560 ;
561 [label="mse = 0.0\nsamples = 1\nvalue = 600000.0", fillcolor="#fef9f5"] ;
560 -> 561 ;
562 [label="Lattitude <= -37.849\nmse = 2467187500.0\nsamples = 4\nvalue = 676250.0", fillcolor="#fef8f4"] ;
560 -> 562 ;
563 [label="mse = 0.0\nsamples = 1\nvalue = 700000.0", fillcolor="#fdf7f3"] ;
562 -> 563 ;
564 [label="mse = 3038888888.889\nsamples = 3\nvalue = 668333.333", fillcolor="#fef8f4"] ;
562 -> 564 ;
565 [label="Lattitude <= -37.825\nmse = 558333333.333\nsamples = 6\nvalue = 580000.0", fillcolor="#fef9f6"] ;
559 -> 565 ;
566 [label="Lattitude <= -37.828\nmse = 70000000.0\nsamples = 5\nvalue = 590000.0", fillcolor="#fef9f6"] ;
565 -> 566 ;
567 [label="Longtitude <= 144.954\nmse = 5555555.556\nsamples = 3\nvalue = 596666.667", fillcolor="#fef9f5"] ;
566 -> 567 ;
568 [label="mse = 0.0\nsamples = 1\nvalue = 600000.0", fillcolor="#fef9f5"] ;
567 -> 568 ;
569 [label="mse = 0.0\nsamples = 2\nvalue = 595000.0", fillcolor="#fef9f5"] ;
567 -> 569 ;
570 [label="mse = 0.0\nsamples = 2\nvalue = 580000.0", fillcolor="#fef9f6"] ;
566 -> 570 ;
571 [label="mse = 0.0\nsamples = 1\nvalue = 530000.0", fillcolor="#fefaf7"] ;
565 -> 571 ;
572 [label="Longtitude <= 144.979\nmse = 5079000000.0\nsamples = 10\nvalue = 479000.0", fillcolor="#fefbf8"] ;
558 -> 572 ;
573 [label="Lattitude <= -37.847\nmse = 1504000000.0\nsamples = 5\nvalue = 419000.0", fillcolor="#fefbf9"] ;
572 -> 573 ;
574 [label="Lattitude <= -37.863\nmse = 304687500.0\nsamples = 4\nvalue = 401250.0", fillcolor="#fefcfa"] ;
573 -> 574 ;
575 [label="mse = 0.0\nsamples = 1\nvalue = 385000.0", fillcolor="#fefcfa"] ;
574 -> 575 ;
576 [label="Lattitude <= -37.86\nmse = 288888888.889\nsamples = 3\nvalue = 406666.667", fillcolor="#fefcfa"] ;
574 -> 576 ;
577 [label="mse = 0.0\nsamples = 1\nvalue = 400000.0", fillcolor="#fefcfa"] ;
576 -> 577 ;
578 [label="mse = 400000000.0\nsamples = 2\nvalue = 410000.0", fillcolor="#fefcfa"] ;
576 -> 578 ;
579 [label="mse = 0.0\nsamples = 1\nvalue = 490000.0", fillcolor="#fefaf8"] ;
573 -> 579 ;
580 [label="Longtitude <= 144.981\nmse = 1454000000.0\nsamples = 5\nvalue = 539000.0", fillcolor="#fefaf7"] ;
572 -> 580 ;
581 [label="mse = 0.0\nsamples = 1\nvalue = 580000.0", fillcolor="#fef9f6"] ;
580 -> 581 ;
582 [label="Longtitude <= 144.982\nmse = 1292187500.0\nsamples = 4\nvalue = 528750.0", fillcolor="#fefaf7"] ;
580 -> 582 ;
583 [label="mse = 0.0\nsamples = 1\nvalue = 475000.0", fillcolor="#fefbf8"] ;
582 -> 583 ;
584 [label="Lattitude <= -37.861\nmse = 438888888.889\nsamples = 3\nvalue = 546666.667", fillcolor="#fefaf7"] ;
582 -> 584 ;
585 [label="Longtitude <= 144.983\nmse = 56250000.0\nsamples = 2\nvalue = 532500.0", fillcolor="#fefaf7"] ;
584 -> 585 ;
586 [label="mse = 0.0\nsamples = 1\nvalue = 540000.0", fillcolor="#fefaf7"] ;
585 -> 586 ;
587 [label="mse = 0.0\nsamples = 1\nvalue = 525000.0", fillcolor="#fefaf7"] ;
585 -> 587 ;
588 [label="mse = 0.0\nsamples = 1\nvalue = 575000.0", fillcolor="#fef9f6"] ;
584 -> 588 ;
589 [label="Lattitude <= -37.854\nmse = 30465794320.988\nsamples = 45\nvalue = 646538.889", fillcolor="#fef8f4"] ;
549 -> 589 ;
590 [label="Lattitude <= -37.867\nmse = 15817515218.522\nsamples = 31\nvalue = 620104.839", fillcolor="#fef9f5"] ;
589 -> 590 ;
591 [label="Lattitude <= -37.87\nmse = 13298878308.129\nsamples = 23\nvalue = 658663.043", fillcolor="#fef8f4"] ;
590 -> 591 ;
592 [label="Longtitude <= 144.995\nmse = 11089537835.744\nsamples = 22\nvalue = 647602.273", fillcolor="#fef8f4"] ;
591 -> 592 ;
593 [label="Longtitude <= 144.985\nmse = 10301950113.379\nsamples = 21\nvalue = 639869.048", fillcolor="#fef8f4"] ;
592 -> 593 ;
594 [label="Lattitude <= -37.874\nmse = 10974000000.0\nsamples = 5\nvalue = 701000.0", fillcolor="#fdf7f3"] ;
593 -> 594 ;
595 [label="Longtitude <= 144.984\nmse = 4256250000.0\nsamples = 4\nvalue = 657500.0", fillcolor="#fef8f4"] ;
594 -> 595 ;
596 [label="Lattitude <= -37.883\nmse = 3600000000.0\nsamples = 2\nvalue = 705000.0", fillcolor="#fdf7f3"] ;
595 -> 596 ;
597 [label="mse = 0.0\nsamples = 1\nvalue = 645000.0", fillcolor="#fef8f4"] ;
596 -> 597 ;
598 [label="mse = 0.0\nsamples = 1\nvalue = 765000.0", fillcolor="#fdf7f2"] ;
596 -> 598 ;
599 [label="Longtitude <= 144.985\nmse = 400000000.0\nsamples = 2\nvalue = 610000.0", fillcolor="#fef9f5"] ;
595 -> 599 ;
600 [label="mse = 0.0\nsamples = 1\nvalue = 630000.0", fillcolor="#fef8f5"] ;
599 -> 600 ;
601 [label="mse = 0.0\nsamples = 1\nvalue = 590000.0", fillcolor="#fef9f6"] ;
599 -> 601 ;
602 [label="mse = 0.0\nsamples = 1\nvalue = 875000.0", fillcolor="#fdf5ef"] ;
594 -> 602 ;
603 [label="Longtitude <= 144.99\nmse = 8559183349.609\nsamples = 16\nvalue = 620765.625", fillcolor="#fef9f5"] ;
593 -> 603 ;
604 [label="Longtitude <= 144.988\nmse = 1873888888.889\nsamples = 6\nvalue = 553666.667", fillcolor="#fefaf6"] ;
603 -> 604 ;
605 [label="Lattitude <= -37.883\nmse = 1022000000.0\nsamples = 4\nvalue = 578000.0", fillcolor="#fef9f6"] ;
604 -> 605 ;
606 [label="mse = 0.0\nsamples = 1\nvalue = 550000.0", fillcolor="#fefaf6"] ;
605 -> 606 ;
607 [label="Longtitude <= 144.986\nmse = 1014222222.222\nsamples = 3\nvalue = 587333.333", fillcolor="#fef9f6"] ;
605 -> 607 ;
608 [label="mse = 961000000.0\nsamples = 2\nvalue = 601000.0", fillcolor="#fef9f5"] ;
607 -> 608 ;
609 [label="mse = 0.0\nsamples = 1\nvalue = 560000.0", fillcolor="#fef9f6"] ;
607 -> 609 ;
610 [label="Longtitude <= 144.989\nmse = 25000000.0\nsamples = 2\nvalue = 505000.0", fillcolor="#fefaf7"] ;
604 -> 610 ;
611 [label="mse = 0.0\nsamples = 1\nvalue = 500000.0", fillcolor="#fefaf8"] ;
610 -> 611 ;
612 [label="mse = 0.0\nsamples = 1\nvalue = 510000.0", fillcolor="#fefaf7"] ;
610 -> 612 ;
613 [label="Longtitude <= 144.994\nmse = 8248180625.0\nsamples = 10\nvalue = 661025.0", fillcolor="#fef8f4"] ;
603 -> 613 ;
614 [label="Longtitude <= 144.99\nmse = 4049622448.98\nsamples = 7\nvalue = 697857.143", fillcolor="#fdf7f3"] ;
613 -> 614 ;
615 [label="Lattitude <= -37.886\nmse = 2756250000.0\nsamples = 2\nvalue = 635000.0", fillcolor="#fef8f5"] ;
614 -> 615 ;
616 [label="mse = 0.0\nsamples = 1\nvalue = 582500.0", fillcolor="#fef9f6"] ;
615 -> 616 ;
617 [label="mse = 0.0\nsamples = 1\nvalue = 687500.0", fillcolor="#fdf8f3"] ;
615 -> 617 ;
618 [label="Longtitude <= 144.992\nmse = 2354400000.0\nsamples = 5\nvalue = 723000.0", fillcolor="#fdf7f3"] ;
614 -> 618 ;
619 [label="Lattitude <= -37.901\nmse = 1540187500.0\nsamples = 4\nvalue = 706250.0", fillcolor="#fdf7f3"] ;
618 -> 619 ;
620 [label="mse = 0.0\nsamples = 1\nvalue = 756000.0", fillcolor="#fdf7f2"] ;
619 -> 620 ;
621 [label="Longtitude <= 144.991\nmse = 953555555.556\nsamples = 3\nvalue = 689666.667", fillcolor="#fdf8f3"] ;
619 -> 621 ;
622 [label="mse = 0.0\nsamples = 1\nvalue = 730000.0", fillcolor="#fdf7f2"] ;
621 -> 622 ;
623 [label="Lattitude <= -37.883\nmse = 210250000.0\nsamples = 2\nvalue = 669500.0", fillcolor="#fef8f4"] ;
621 -> 623 ;
624 [label="mse = 0.0\nsamples = 1\nvalue = 655000.0", fillcolor="#fef8f4"] ;
623 -> 624 ;
625 [label="mse = 0.0\nsamples = 1\nvalue = 684000.0", fillcolor="#fdf8f3"] ;
623 -> 625 ;
626 [label="mse = 0.0\nsamples = 1\nvalue = 790000.0", fillcolor="#fdf6f1"] ;
618 -> 626 ;
627 [label="Lattitude <= -37.881\nmse = 7493430555.555\nsamples = 3\nvalue = 575083.333", fillcolor="#fef9f6"] ;
613 -> 627 ;
628 [label="mse = 0.0\nsamples = 1\nvalue = 696750.0", fillcolor="#fdf7f3"] ;
627 -> 628 ;
629 [label="Lattitude <= -37.877\nmse = 138062500.0\nsamples = 2\nvalue = 514250.0", fillcolor="#fefaf7"] ;
627 -> 629 ;
630 [label="mse = 0.0\nsamples = 1\nvalue = 526000.0", fillcolor="#fefaf7"] ;
629 -> 630 ;
631 [label="mse = 0.0\nsamples = 1\nvalue = 502500.0", fillcolor="#fefaf8"] ;
629 -> 631 ;
632 [label="mse = 0.0\nsamples = 1\nvalue = 810000.0", fillcolor="#fdf6f1"] ;
592 -> 632 ;
633 [label="mse = 0.0\nsamples = 1\nvalue = 902000.0", fillcolor="#fdf5ef"] ;
591 -> 633 ;
634 [label="Lattitude <= -37.864\nmse = 6495437500.0\nsamples = 8\nvalue = 509250.0", fillcolor="#fefaf7"] ;
590 -> 634 ;
635 [label="Lattitude <= -37.867\nmse = 309555555.556\nsamples = 3\nvalue = 451666.667", fillcolor="#fefbf9"] ;
634 -> 635 ;
636 [label="mse = 0.0\nsamples = 1\nvalue = 474000.0", fillcolor="#fefbf8"] ;
635 -> 636 ;
637 [label="Lattitude <= -37.866\nmse = 90250000.0\nsamples = 2\nvalue = 440500.0", fillcolor="#fefbf9"] ;
635 -> 637 ;
638 [label="mse = 0.0\nsamples = 1\nvalue = 431000.0", fillcolor="#fefbf9"] ;
637 -> 638 ;
639 [label="mse = 0.0\nsamples = 1\nvalue = 450000.0", fillcolor="#fefbf9"] ;
637 -> 639 ;
640 [label="Lattitude <= -37.862\nmse = 7023760000.0\nsamples = 5\nvalue = 543800.0", fillcolor="#fefaf7"] ;
634 -> 640 ;
641 [label="mse = 0.0\nsamples = 1\nvalue = 701000.0", fillcolor="#fdf7f3"] ;
640 -> 641 ;
642 [label="Lattitude <= -37.856\nmse = 1057250000.0\nsamples = 4\nvalue = 504500.0", fillcolor="#fefaf7"] ;
640 -> 642 ;
643 [label="Longtitude <= 144.99\nmse = 40666666.667\nsamples = 3\nvalue = 486000.0", fillcolor="#fefaf8"] ;
642 -> 643 ;
644 [label="Lattitude <= -37.858\nmse = 250000.0\nsamples = 2\nvalue = 481500.0", fillcolor="#fefbf8"] ;
643 -> 644 ;
645 [label="mse = 0.0\nsamples = 1\nvalue = 481000.0", fillcolor="#fefbf8"] ;
644 -> 645 ;
646 [label="mse = 0.0\nsamples = 1\nvalue = 482000.0", fillcolor="#fefbf8"] ;
644 -> 646 ;
647 [label="mse = 0.0\nsamples = 1\nvalue = 495000.0", fillcolor="#fefaf8"] ;
643 -> 647 ;
648 [label="mse = 0.0\nsamples = 1\nvalue = 560000.0", fillcolor="#fef9f6"] ;
642 -> 648 ;
649 [label="Lattitude <= -37.852\nmse = 57927959183.674\nsamples = 14\nvalue = 705071.429", fillcolor="#fdf7f3"] ;
589 -> 649 ;
650 [label="mse = 0.0\nsamples = 1\nvalue = 1500000.0", fillcolor="#fbece1"] ;
649 -> 650 ;
651 [label="Longtitude <= 144.985\nmse = 10036263313.61\nsamples = 13\nvalue = 643923.077", fillcolor="#fef8f4"] ;
649 -> 651 ;
652 [label="mse = 0.0\nsamples = 1\nvalue = 826000.0", fillcolor="#fdf6f0"] ;
651 -> 652 ;
653 [label="Lattitude <= -37.834\nmse = 7879729166.667\nsamples = 12\nvalue = 628750.0", fillcolor="#fef8f5"] ;
651 -> 653 ;
654 [label="Longtitude <= 144.991\nmse = 7974812500.0\nsamples = 8\nvalue = 653000.0", fillcolor="#fef8f4"] ;
653 -> 654 ;
655 [label="Longtitude <= 144.987\nmse = 7193796875.0\nsamples = 4\nvalue = 701875.0", fillcolor="#fdf7f3"] ;
654 -> 655 ;
656 [label="mse = 0.0\nsamples = 1\nvalue = 572000.0", fillcolor="#fef9f6"] ;
655 -> 656 ;
657 [label="Longtitude <= 144.99\nmse = 2095055555.556\nsamples = 3\nvalue = 745166.667", fillcolor="#fdf7f2"] ;
655 -> 657 ;
658 [label="Longtitude <= 144.989\nmse = 6250000.0\nsamples = 2\nvalue = 777500.0", fillcolor="#fdf6f1"] ;
657 -> 658 ;
659 [label="mse = 0.0\nsamples = 1\nvalue = 775000.0", fillcolor="#fdf6f1"] ;
658 -> 659 ;
660 [label="mse = 0.0\nsamples = 1\nvalue = 780000.0", fillcolor="#fdf6f1"] ;
658 -> 660 ;
661 [label="mse = 0.0\nsamples = 1\nvalue = 680500.0", fillcolor="#fdf8f4"] ;
657 -> 661 ;
662 [label="Longtitude <= 144.992\nmse = 3978296875.0\nsamples = 4\nvalue = 604125.0", fillcolor="#fef9f5"] ;
654 -> 662 ;
663 [label="Lattitude <= -37.844\nmse = 156250000.0\nsamples = 2\nvalue = 547500.0", fillcolor="#fefaf7"] ;
662 -> 663 ;
664 [label="mse = 0.0\nsamples = 1\nvalue = 560000.0", fillcolor="#fef9f6"] ;
663 -> 664 ;
665 [label="mse = 0.0\nsamples = 1\nvalue = 535000.0", fillcolor="#fefaf7"] ;
663 -> 665 ;
666 [label="Longtitude <= 144.994\nmse = 1387562500.0\nsamples = 2\nvalue = 660750.0", fillcolor="#fef8f4"] ;
662 -> 666 ;
667 [label="mse = 0.0\nsamples = 1\nvalue = 623500.0", fillcolor="#fef9f5"] ;
666 -> 667 ;
668 [label="mse = 0.0\nsamples = 1\nvalue = 698000.0", fillcolor="#fdf7f3"] ;
666 -> 668 ;
669 [label="Lattitude <= -37.834\nmse = 4161187500.0\nsamples = 4\nvalue = 580250.0", fillcolor="#fef9f6"] ;
653 -> 669 ;
670 [label="mse = 0.0\nsamples = 1\nvalue = 480000.0", fillcolor="#fefbf8"] ;
669 -> 670 ;
671 [label="Longtitude <= 144.988\nmse = 1081555555.556\nsamples = 3\nvalue = 613666.667", fillcolor="#fef9f5"] ;
669 -> 671 ;
672 [label="mse = 0.0\nsamples = 1\nvalue = 659000.0", fillcolor="#fef8f4"] ;
671 -> 672 ;
673 [label="Lattitude <= -37.829\nmse = 81000000.0\nsamples = 2\nvalue = 591000.0", fillcolor="#fef9f6"] ;
671 -> 673 ;
674 [label="mse = 0.0\nsamples = 1\nvalue = 600000.0", fillcolor="#fef9f5"] ;
673 -> 674 ;
675 [label="mse = 0.0\nsamples = 1\nvalue = 582000.0", fillcolor="#fef9f6"] ;
673 -> 675 ;
676 [label="Longtitude <= 144.955\nmse = 10979687500.0\nsamples = 4\nvalue = 411250.0", fillcolor="#fefcfa"] ;
548 -> 676 ;
677 [label="Lattitude <= -37.817\nmse = 1406250000.0\nsamples = 2\nvalue = 507500.0", fillcolor="#fefaf7"] ;
676 -> 677 ;
678 [label="mse = 0.0\nsamples = 1\nvalue = 545000.0", fillcolor="#fefaf7"] ;
677 -> 678 ;
679 [label="mse = 0.0\nsamples = 1\nvalue = 470000.0", fillcolor="#fefbf8"] ;
677 -> 679 ;
680 [label="Longtitude <= 144.973\nmse = 2025000000.0\nsamples = 2\nvalue = 315000.0", fillcolor="#fffdfc"] ;
676 -> 680 ;
681 [label="mse = 0.0\nsamples = 1\nvalue = 360000.0", fillcolor="#fefcfb"] ;
680 -> 681 ;
682 [label="mse = 0.0\nsamples = 1\nvalue = 270000.0", fillcolor="#fffefd"] ;
680 -> 682 ;
683 [label="Longtitude <= 144.979\nmse = 59946718122.678\nsamples = 40\nvalue = 724265.85", fillcolor="#fdf7f3"] ;
545 -> 683 ;
684 [label="Lattitude <= -37.809\nmse = 13796906530.667\nsamples = 27\nvalue = 649208.667", fillcolor="#fef8f4"] ;
683 -> 684 ;
685 [label="Longtitude <= 144.949\nmse = 23930000000.0\nsamples = 5\nvalue = 750000.0", fillcolor="#fdf7f2"] ;
684 -> 685 ;
686 [label="mse = 0.0\nsamples = 1\nvalue = 1055000.0", fillcolor="#fcf2eb"] ;
685 -> 686 ;
687 [label="Lattitude <= -37.812\nmse = 842187500.0\nsamples = 4\nvalue = 673750.0", fillcolor="#fef8f4"] ;
685 -> 687 ;
688 [label="mse = 0.0\nsamples = 1\nvalue = 720000.0", fillcolor="#fdf7f3"] ;
687 -> 688 ;
689 [label="Landsize <= 8.5\nmse = 172222222.222\nsamples = 3\nvalue = 658333.333", fillcolor="#fef8f4"] ;
687 -> 689 ;
690 [label="mse = 156250000.0\nsamples = 2\nvalue = 652500.0", fillcolor="#fef8f4"] ;
689 -> 690 ;
691 [label="mse = 0.0\nsamples = 1\nvalue = 670000.0", fillcolor="#fef8f4"] ;
689 -> 691 ;
692 [label="Lattitude <= -37.777\nmse = 8660355250.157\nsamples = 22\nvalue = 626301.545", fillcolor="#fef8f5"] ;
684 -> 692 ;
693 [label="Lattitude <= -37.797\nmse = 6899939086.44\nsamples = 21\nvalue = 616363.524", fillcolor="#fef9f5"] ;
692 -> 693 ;
694 [label="Longtitude <= 144.943\nmse = 7674678621.639\nsamples = 12\nvalue = 588636.167", fillcolor="#fef9f6"] ;
693 -> 694 ;
695 [label="mse = 0.0\nsamples = 1\nvalue = 465000.0", fillcolor="#fefbf8"] ;
694 -> 695 ;
696 [label="Longtitude <= 144.955\nmse = 6856419483.967\nsamples = 11\nvalue = 599875.818", fillcolor="#fef9f5"] ;
694 -> 696 ;
697 [label="Lattitude <= -37.799\nmse = 6051512770.122\nsamples = 7\nvalue = 631519.143", fillcolor="#fef8f5"] ;
696 -> 697 ;
698 [label="Lattitude <= -37.8\nmse = 5086400000.0\nsamples = 5\nvalue = 661000.0", fillcolor="#fef8f4"] ;
697 -> 698 ;
699 [label="Longtitude <= 144.944\nmse = 406750000.0\nsamples = 4\nvalue = 626500.0", fillcolor="#fef8f5"] ;
698 -> 699 ;
700 [label="mse = 0.0\nsamples = 1\nvalue = 660000.0", fillcolor="#fef8f4"] ;
699 -> 700 ;
701 [label="Longtitude <= 144.948\nmse = 43555555.556\nsamples = 3\nvalue = 615333.333", fillcolor="#fef9f5"] ;
699 -> 701 ;
702 [label="mse = 0.0\nsamples = 1\nvalue = 606000.0", fillcolor="#fef9f5"] ;
701 -> 702 ;
703 [label="mse = 0.0\nsamples = 2\nvalue = 620000.0", fillcolor="#fef9f5"] ;
701 -> 703 ;
704 [label="mse = 0.0\nsamples = 1\nvalue = 799000.0", fillcolor="#fdf6f1"] ;
698 -> 704 ;
705 [label="Longtitude <= 144.946\nmse = 859486489.0\nsamples = 2\nvalue = 557817.0", fillcolor="#fef9f6"] ;
697 -> 705 ;
706 [label="mse = 0.0\nsamples = 1\nvalue = 587134.0", fillcolor="#fef9f6"] ;
705 -> 706 ;
707 [label="mse = 0.0\nsamples = 1\nvalue = 528500.0", fillcolor="#fefaf7"] ;
705 -> 707 ;
708 [label="Lattitude <= -37.807\nmse = 3446250000.0\nsamples = 4\nvalue = 544500.0", fillcolor="#fefaf7"] ;
696 -> 708 ;
709 [label="mse = 0.0\nsamples = 1\nvalue = 450000.0", fillcolor="#fefbf9"] ;
708 -> 709 ;
710 [label="Longtitude <= 144.957\nmse = 626000000.0\nsamples = 3\nvalue = 576000.0", fillcolor="#fef9f6"] ;
708 -> 710 ;
711 [label="mse = 0.0\nsamples = 1\nvalue = 541000.0", fillcolor="#fefaf7"] ;
710 -> 711 ;
712 [label="Lattitude <= -37.802\nmse = 20250000.0\nsamples = 2\nvalue = 593500.0", fillcolor="#fef9f6"] ;
710 -> 712 ;
713 [label="mse = 0.0\nsamples = 1\nvalue = 598000.0", fillcolor="#fef9f5"] ;
712 -> 713 ;
714 [label="mse = 0.0\nsamples = 1\nvalue = 589000.0", fillcolor="#fef9f6"] ;
712 -> 714 ;
715 [label="Longtitude <= 144.946\nmse = 3475111111.111\nsamples = 9\nvalue = 653333.333", fillcolor="#fef8f4"] ;
693 -> 715 ;
716 [label="mse = 0.0\nsamples = 1\nvalue = 726000.0", fillcolor="#fdf7f3"] ;
715 -> 716 ;
717 [label="Longtitude <= 144.958\nmse = 3166937500.0\nsamples = 8\nvalue = 644250.0", fillcolor="#fef8f4"] ;
715 -> 717 ;
718 [label="mse = 0.0\nsamples = 1\nvalue = 550000.0", fillcolor="#fefaf6"] ;
717 -> 718 ;
719 [label="Lattitude <= -37.793\nmse = 2169061224.49\nsamples = 7\nvalue = 657714.286", fillcolor="#fef8f4"] ;
717 -> 719 ;
720 [label="Lattitude <= -37.796\nmse = 6250000.0\nsamples = 2\nvalue = 707500.0", fillcolor="#fdf7f3"] ;
719 -> 720 ;
721 [label="mse = 0.0\nsamples = 1\nvalue = 705000.0", fillcolor="#fdf7f3"] ;
720 -> 721 ;
722 [label="mse = 0.0\nsamples = 1\nvalue = 710000.0", fillcolor="#fdf7f3"] ;
720 -> 722 ;
723 [label="Lattitude <= -37.779\nmse = 1646160000.0\nsamples = 5\nvalue = 637800.0", fillcolor="#fef8f5"] ;
719 -> 723 ;
724 [label="Lattitude <= -37.785\nmse = 506250000.0\nsamples = 2\nvalue = 592500.0", fillcolor="#fef9f6"] ;
723 -> 724 ;
725 [label="mse = 0.0\nsamples = 1\nvalue = 570000.0", fillcolor="#fef9f6"] ;
724 -> 725 ;
726 [label="mse = 0.0\nsamples = 1\nvalue = 615000.0", fillcolor="#fef9f5"] ;
724 -> 726 ;
727 [label="Lattitude <= -37.778\nmse = 126000000.0\nsamples = 3\nvalue = 668000.0", fillcolor="#fef8f4"] ;
723 -> 727 ;
728 [label="mse = 20250000.0\nsamples = 2\nvalue = 660500.0", fillcolor="#fef8f4"] ;
727 -> 728 ;
729 [label="mse = 0.0\nsamples = 1\nvalue = 683000.0", fillcolor="#fdf8f3"] ;
727 -> 729 ;
730 [label="mse = 0.0\nsamples = 1\nvalue = 835000.0", fillcolor="#fdf6f0"] ;
692 -> 730 ;
731 [label="Lattitude <= -37.804\nmse = 119794745562.13\nsamples = 13\nvalue = 880153.846", fillcolor="#fdf5ef"] ;
683 -> 731 ;
732 [label="Longtitude <= 144.984\nmse = 160077555555.556\nsamples = 3\nvalue = 1192333.333", fillcolor="#fcf0e8"] ;
731 -> 732 ;
733 [label="mse = 0.0\nsamples = 1\nvalue = 672000.0", fillcolor="#fef8f4"] ;
732 -> 733 ;
734 [label="Longtitude <= 144.985\nmse = 37056250000.0\nsamples = 2\nvalue = 1452500.0", fillcolor="#fbede2"] ;
732 -> 734 ;
735 [label="mse = 0.0\nsamples = 1\nvalue = 1260000.0", fillcolor="#fcefe7"] ;
734 -> 735 ;
736 [label="mse = 0.0\nsamples = 1\nvalue = 1645000.0", fillcolor="#fbeade"] ;
734 -> 736 ;
737 [label="Longtitude <= 144.982\nmse = 69702050000.0\nsamples = 10\nvalue = 786500.0", fillcolor="#fdf6f1"] ;
731 -> 737 ;
738 [label="Longtitude <= 144.981\nmse = 105625000000.0\nsamples = 2\nvalue = 1135000.0", fillcolor="#fcf1e9"] ;
737 -> 738 ;
739 [label="mse = 0.0\nsamples = 1\nvalue = 810000.0", fillcolor="#fdf6f1"] ;
738 -> 739 ;
740 [label="mse = 0.0\nsamples = 1\nvalue = 1460000.0", fillcolor="#fbede2"] ;
738 -> 740 ;
741 [label="Longtitude <= 144.989\nmse = 22767484375.0\nsamples = 8\nvalue = 699375.0", fillcolor="#fdf7f3"] ;
737 -> 741 ;
742 [label="Longtitude <= 144.987\nmse = 23981805555.555\nsamples = 6\nvalue = 738833.333", fillcolor="#fdf7f2"] ;
741 -> 742 ;
743 [label="Longtitude <= 144.984\nmse = 843440000.0\nsamples = 5\nvalue = 670600.0", fillcolor="#fef8f4"] ;
742 -> 743 ;
744 [label="Lattitude <= -37.797\nmse = 506250000.0\nsamples = 2\nvalue = 652500.0", fillcolor="#fef8f4"] ;
743 -> 744 ;
745 [label="mse = 0.0\nsamples = 1\nvalue = 630000.0", fillcolor="#fef8f5"] ;
744 -> 745 ;
746 [label="mse = 0.0\nsamples = 1\nvalue = 675000.0", fillcolor="#fef8f4"] ;
744 -> 746 ;
747 [label="Lattitude <= -37.787\nmse = 704222222.222\nsamples = 3\nvalue = 682666.667", fillcolor="#fdf8f4"] ;
743 -> 747 ;
748 [label="Longtitude <= 144.984\nmse = 256000000.0\nsamples = 2\nvalue = 699000.0", fillcolor="#fdf7f3"] ;
747 -> 748 ;
749 [label="mse = 0.0\nsamples = 1\nvalue = 715000.0", fillcolor="#fdf7f3"] ;
748 -> 749 ;
750 [label="mse = 0.0\nsamples = 1\nvalue = 683000.0", fillcolor="#fdf8f3"] ;
748 -> 750 ;
751 [label="mse = 0.0\nsamples = 1\nvalue = 650000.0", fillcolor="#fef8f4"] ;
747 -> 751 ;
752 [label="mse = 0.0\nsamples = 1\nvalue = 1080000.0", fillcolor="#fcf2eb"] ;
742 -> 752 ;
753 [label="Longtitude <= 144.991\nmse = 441000000.0\nsamples = 2\nvalue = 581000.0", fillcolor="#fef9f6"] ;
741 -> 753 ;
754 [label="mse = 0.0\nsamples = 1\nvalue = 602000.0", fillcolor="#fef9f5"] ;
753 -> 754 ;
755 [label="mse = 0.0\nsamples = 1\nvalue = 560000.0", fillcolor="#fef9f6"] ;
753 -> 755 ;
756 [label="Longtitude <= 144.96\nmse = 23064285714.286\nsamples = 7\nvalue = 995000.0", fillcolor="#fdf3ed"] ;
544 -> 756 ;
757 [label="Lattitude <= -37.813\nmse = 14592187500.0\nsamples = 4\nvalue = 1093750.0", fillcolor="#fcf2ea"] ;
756 -> 757 ;
758 [label="Longtitude <= 144.946\nmse = 6422222222.222\nsamples = 3\nvalue = 1036666.667", fillcolor="#fcf3ec"] ;
757 -> 758 ;
759 [label="mse = 0.0\nsamples = 1\nvalue = 1150000.0", fillcolor="#fcf1e9"] ;
758 -> 759 ;
760 [label="mse = 0.0\nsamples = 2\nvalue = 980000.0", fillcolor="#fdf3ed"] ;
758 -> 760 ;
761 [label="mse = 0.0\nsamples = 1\nvalue = 1265000.0", fillcolor="#fcefe6"] ;
757 -> 761 ;
762 [label="Landsize <= 80.5\nmse = 4022222222.222\nsamples = 3\nvalue = 863333.333", fillcolor="#fdf5ef"] ;
756 -> 762 ;
763 [label="Lattitude <= -37.795\nmse = 400000000.0\nsamples = 2\nvalue = 820000.0", fillcolor="#fdf6f0"] ;
762 -> 763 ;
764 [label="mse = 0.0\nsamples = 1\nvalue = 840000.0", fillcolor="#fdf5f0"] ;
763 -> 764 ;
765 [label="mse = 0.0\nsamples = 1\nvalue = 800000.0", fillcolor="#fdf6f1"] ;
763 -> 765 ;
766 [label="mse = 0.0\nsamples = 1\nvalue = 950000.0", fillcolor="#fdf4ee"] ;
762 -> 766 ;
767 [label="Lattitude <= -37.948\nmse = 16576769382.75\nsamples = 160\nvalue = 585861.0", fillcolor="#fef9f6"] ;
543 -> 767 ;
768 [label="Lattitude <= -37.971\nmse = 11815187500.0\nsamples = 4\nvalue = 772250.0", fillcolor="#fdf6f1"] ;
767 -> 768 ;
769 [label="mse = 0.0\nsamples = 1\nvalue = 600000.0", fillcolor="#fef9f5"] ;
768 -> 769 ;
770 [label="Lattitude <= -37.956\nmse = 2566888888.889\nsamples = 3\nvalue = 829666.667", fillcolor="#fdf6f0"] ;
768 -> 770 ;
771 [label="Longtitude <= 145.038\nmse = 210250000.0\nsamples = 2\nvalue = 864500.0", fillcolor="#fdf5ef"] ;
770 -> 771 ;
772 [label="mse = 0.0\nsamples = 1\nvalue = 879000.0", fillcolor="#fdf5ef"] ;
771 -> 772 ;
773 [label="mse = 0.0\nsamples = 1\nvalue = 850000.0", fillcolor="#fdf5f0"] ;
771 -> 773 ;
774 [label="mse = 0.0\nsamples = 1\nvalue = 760000.0", fillcolor="#fdf7f2"] ;
770 -> 774 ;
775 [label="Lattitude <= -37.889\nmse = 15785229159.599\nsamples = 156\nvalue = 581081.795", fillcolor="#fef9f6"] ;
767 -> 775 ;
776 [label="Lattitude <= -37.915\nmse = 12789685956.841\nsamples = 43\nvalue = 525546.744", fillcolor="#fefaf7"] ;
775 -> 776 ;
777 [label="Lattitude <= -37.931\nmse = 16389102040.816\nsamples = 14\nvalue = 596428.571", fillcolor="#fef9f5"] ;
776 -> 777 ;
778 [label="Lattitude <= -37.935\nmse = 16615210000.0\nsamples = 10\nvalue = 554300.0", fillcolor="#fefaf6"] ;
777 -> 778 ;
779 [label="Lattitude <= -37.941\nmse = 6979666666.667\nsamples = 6\nvalue = 633000.0", fillcolor="#fef8f5"] ;
778 -> 779 ;
780 [label="Lattitude <= -37.943\nmse = 1892250000.0\nsamples = 2\nvalue = 543500.0", fillcolor="#fefaf7"] ;
779 -> 780 ;
781 [label="mse = 0.0\nsamples = 1\nvalue = 500000.0", fillcolor="#fefaf8"] ;
780 -> 781 ;
782 [label="mse = 0.0\nsamples = 1\nvalue = 587000.0", fillcolor="#fef9f6"] ;
780 -> 782 ;
783 [label="Lattitude <= -37.94\nmse = 3515687500.0\nsamples = 4\nvalue = 677750.0", fillcolor="#fef8f4"] ;
779 -> 783 ;
784 [label="mse = 0.0\nsamples = 1\nvalue = 771000.0", fillcolor="#fdf6f2"] ;
783 -> 784 ;
785 [label="Longtitude <= 145.002\nmse = 822888888.889\nsamples = 3\nvalue = 646666.667", fillcolor="#fef8f4"] ;
783 -> 785 ;
786 [label="mse = 0.0\nsamples = 1\nvalue = 685000.0", fillcolor="#fdf8f3"] ;
785 -> 786 ;
787 [label="Landsize <= 41.5\nmse = 132250000.0\nsamples = 2\nvalue = 627500.0", fillcolor="#fef8f5"] ;
785 -> 787 ;
788 [label="mse = 0.0\nsamples = 1\nvalue = 616000.0", fillcolor="#fef9f5"] ;
787 -> 788 ;
789 [label="mse = 0.0\nsamples = 1\nvalue = 639000.0", fillcolor="#fef8f4"] ;
787 -> 789 ;
790 [label="Lattitude <= -37.932\nmse = 7842187500.0\nsamples = 4\nvalue = 436250.0", fillcolor="#fefbf9"] ;
778 -> 790 ;
791 [label="Lattitude <= -37.933\nmse = 622222222.222\nsamples = 3\nvalue = 386666.667", fillcolor="#fefcfa"] ;
790 -> 791 ;
792 [label="mse = 0.0\nsamples = 1\nvalue = 420000.0", fillcolor="#fefbf9"] ;
791 -> 792 ;
793 [label="Longtitude <= 145.041\nmse = 100000000.0\nsamples = 2\nvalue = 370000.0", fillcolor="#fefcfb"] ;
791 -> 793 ;
794 [label="mse = 0.0\nsamples = 1\nvalue = 380000.0", fillcolor="#fefcfa"] ;
793 -> 794 ;
795 [label="mse = 0.0\nsamples = 1\nvalue = 360000.0", fillcolor="#fefcfb"] ;
793 -> 795 ;
796 [label="mse = 0.0\nsamples = 1\nvalue = 585000.0", fillcolor="#fef9f6"] ;
790 -> 796 ;
797 [label="Landsize <= 37.0\nmse = 294187500.0\nsamples = 4\nvalue = 701750.0", fillcolor="#fdf7f3"] ;
777 -> 797 ;
798 [label="Lattitude <= -37.925\nmse = 56250000.0\nsamples = 2\nvalue = 717500.0", fillcolor="#fdf7f3"] ;
797 -> 798 ;
799 [label="mse = 0.0\nsamples = 1\nvalue = 725000.0", fillcolor="#fdf7f3"] ;
798 -> 799 ;
800 [label="mse = 0.0\nsamples = 1\nvalue = 710000.0", fillcolor="#fdf7f3"] ;
798 -> 800 ;
801 [label="Longtitude <= 145.021\nmse = 36000000.0\nsamples = 2\nvalue = 686000.0", fillcolor="#fdf8f3"] ;
797 -> 801 ;
802 [label="mse = 0.0\nsamples = 1\nvalue = 692000.0", fillcolor="#fdf8f3"] ;
801 -> 802 ;
803 [label="mse = 0.0\nsamples = 1\nvalue = 680000.0", fillcolor="#fdf8f4"] ;
801 -> 803 ;
804 [label="Longtitude <= 145.091\nmse = 7455617637.099\nsamples = 29\nvalue = 491327.931", fillcolor="#fefaf8"] ;
776 -> 804 ;
805 [label="Lattitude <= -37.901\nmse = 6437674340.179\nsamples = 28\nvalue = 497982.5", fillcolor="#fefaf8"] ;
804 -> 805 ;
806 [label="Lattitude <= -37.903\nmse = 2864371093.75\nsamples = 8\nvalue = 452812.5", fillcolor="#fefbf9"] ;
805 -> 806 ;
807 [label="Longtitude <= 145.021\nmse = 431671875.0\nsamples = 4\nvalue = 500625.0", fillcolor="#fefaf8"] ;
806 -> 807 ;
808 [label="mse = 0.0\nsamples = 1\nvalue = 536000.0", fillcolor="#fefaf7"] ;
807 -> 808 ;
809 [label="Landsize <= 38.0\nmse = 19388888.889\nsamples = 3\nvalue = 488833.333", fillcolor="#fefaf8"] ;
807 -> 809 ;
810 [label="Lattitude <= -37.906\nmse = 562500.0\nsamples = 2\nvalue = 485750.0", fillcolor="#fefaf8"] ;
809 -> 810 ;
811 [label="mse = 0.0\nsamples = 1\nvalue = 486500.0", fillcolor="#fefaf8"] ;
810 -> 811 ;
812 [label="mse = 0.0\nsamples = 1\nvalue = 485000.0", fillcolor="#fefbf8"] ;
810 -> 812 ;
813 [label="mse = 0.0\nsamples = 1\nvalue = 495000.0", fillcolor="#fefaf8"] ;
809 -> 813 ;
814 [label="Lattitude <= -37.903\nmse = 725000000.0\nsamples = 4\nvalue = 405000.0", fillcolor="#fefcfa"] ;
806 -> 814 ;
815 [label="mse = 0.0\nsamples = 1\nvalue = 360000.0", fillcolor="#fefcfb"] ;
814 -> 815 ;
816 [label="mse = 66666666.667\nsamples = 3\nvalue = 420000.0", fillcolor="#fefbf9"] ;
814 -> 816 ;
817 [label="Lattitude <= -37.897\nmse = 6724411454.75\nsamples = 20\nvalue = 516050.5", fillcolor="#fefaf7"] ;
805 -> 817 ;
818 [label="Lattitude <= -37.898\nmse = 4214575013.889\nsamples = 6\nvalue = 582501.667", fillcolor="#fef9f6"] ;
817 -> 818 ;
819 [label="Lattitude <= -37.899\nmse = 2179856268.75\nsamples = 4\nvalue = 546252.5", fillcolor="#fefaf7"] ;
818 -> 819 ;
820 [label="Landsize <= 38.5\nmse = 650066688.889\nsamples = 3\nvalue = 570003.333", fillcolor="#fef9f6"] ;
819 -> 820 ;
821 [label="Lattitude <= -37.9\nmse = 56175025.0\nsamples = 2\nvalue = 587505.0", fillcolor="#fef9f6"] ;
820 -> 821 ;
822 [label="mse = 0.0\nsamples = 1\nvalue = 580010.0", fillcolor="#fef9f6"] ;
821 -> 822 ;
823 [label="mse = 0.0\nsamples = 1\nvalue = 595000.0", fillcolor="#fef9f5"] ;
821 -> 823 ;
824 [label="mse = 0.0\nsamples = 1\nvalue = 535000.0", fillcolor="#fefaf7"] ;
820 -> 824 ;
825 [label="mse = 0.0\nsamples = 1\nvalue = 475000.0", fillcolor="#fefbf8"] ;
819 -> 825 ;
826 [label="Longtitude <= 145.062\nmse = 400000000.0\nsamples = 2\nvalue = 655000.0", fillcolor="#fef8f4"] ;
818 -> 826 ;
827 [label="mse = 0.0\nsamples = 1\nvalue = 635000.0", fillcolor="#fef8f5"] ;
826 -> 827 ;
828 [label="mse = 0.0\nsamples = 1\nvalue = 675000.0", fillcolor="#fef8f4"] ;
826 -> 828 ;
829 [label="Lattitude <= -37.896\nmse = 5096530612.245\nsamples = 14\nvalue = 487571.429", fillcolor="#fefaf8"] ;
817 -> 829 ;
830 [label="Longtitude <= 145.075\nmse = 4108222222.222\nsamples = 3\nvalue = 426333.333", fillcolor="#fefbf9"] ;
829 -> 830 ;
831 [label="Lattitude <= -37.896\nmse = 132250000.0\nsamples = 2\nvalue = 381500.0", fillcolor="#fefcfa"] ;
830 -> 831 ;
832 [label="mse = 0.0\nsamples = 1\nvalue = 393000.0", fillcolor="#fefcfa"] ;
831 -> 832 ;
833 [label="mse = 0.0\nsamples = 1\nvalue = 370000.0", fillcolor="#fefcfb"] ;
831 -> 833 ;
834 [label="mse = 0.0\nsamples = 1\nvalue = 516000.0", fillcolor="#fefaf7"] ;
830 -> 834 ;
835 [label="Lattitude <= -37.894\nmse = 4064380165.289\nsamples = 11\nvalue = 504272.727", fillcolor="#fefaf8"] ;
829 -> 835 ;
836 [label="Longtitude <= 145.066\nmse = 4581250000.0\nsamples = 4\nvalue = 557500.0", fillcolor="#fef9f6"] ;
835 -> 836 ;
837 [label="Lattitude <= -37.895\nmse = 156250000.0\nsamples = 2\nvalue = 617500.0", fillcolor="#fef9f5"] ;
836 -> 837 ;
838 [label="mse = 0.0\nsamples = 1\nvalue = 605000.0", fillcolor="#fef9f5"] ;
837 -> 838 ;
839 [label="mse = 0.0\nsamples = 1\nvalue = 630000.0", fillcolor="#fef8f5"] ;
837 -> 839 ;
840 [label="Lattitude <= -37.895\nmse = 1806250000.0\nsamples = 2\nvalue = 497500.0", fillcolor="#fefaf8"] ;
836 -> 840 ;
841 [label="mse = 0.0\nsamples = 1\nvalue = 540000.0", fillcolor="#fefaf7"] ;
840 -> 841 ;
842 [label="mse = 0.0\nsamples = 1\nvalue = 455000.0", fillcolor="#fefbf9"] ;
840 -> 842 ;
843 [label="Longtitude <= 145.056\nmse = 1224979591.837\nsamples = 7\nvalue = 473857.143", fillcolor="#fefbf8"] ;
835 -> 843 ;
844 [label="Longtitude <= 145.033\nmse = 706250000.0\nsamples = 4\nvalue = 452500.0", fillcolor="#fefbf9"] ;
843 -> 844 ;
845 [label="mse = 0.0\nsamples = 1\nvalue = 490000.0", fillcolor="#fefaf8"] ;
844 -> 845 ;
846 [label="Lattitude <= -37.889\nmse = 316666666.667\nsamples = 3\nvalue = 440000.0", fillcolor="#fefbf9"] ;
844 -> 846 ;
847 [label="Lattitude <= -37.89\nmse = 6250000.0\nsamples = 2\nvalue = 452500.0", fillcolor="#fefbf9"] ;
846 -> 847 ;
848 [label="mse = 0.0\nsamples = 1\nvalue = 455000.0", fillcolor="#fefbf9"] ;
847 -> 848 ;
849 [label="mse = 0.0\nsamples = 1\nvalue = 450000.0", fillcolor="#fefbf9"] ;
847 -> 849 ;
850 [label="mse = 0.0\nsamples = 1\nvalue = 415000.0", fillcolor="#fefcfa"] ;
846 -> 850 ;
851 [label="Longtitude <= 145.074\nmse = 497555555.556\nsamples = 3\nvalue = 502333.333", fillcolor="#fefaf8"] ;
843 -> 851 ;
852 [label="Longtitude <= 145.062\nmse = 56250000.0\nsamples = 2\nvalue = 517500.0", fillcolor="#fefaf7"] ;
851 -> 852 ;
853 [label="mse = 0.0\nsamples = 1\nvalue = 525000.0", fillcolor="#fefaf7"] ;
852 -> 853 ;
854 [label="mse = 0.0\nsamples = 1\nvalue = 510000.0", fillcolor="#fefaf7"] ;
852 -> 854 ;
855 [label="mse = 0.0\nsamples = 1\nvalue = 472000.0", fillcolor="#fefbf8"] ;
851 -> 855 ;
856 [label="mse = 0.0\nsamples = 1\nvalue = 305000.0", fillcolor="#fffdfc"] ;
804 -> 856 ;
857 [label="Lattitude <= -37.883\nmse = 15304919100.948\nsamples = 113\nvalue = 602214.602", fillcolor="#fef9f5"] ;
775 -> 857 ;
858 [label="Lattitude <= -37.887\nmse = 8880388888.889\nsamples = 9\nvalue = 703666.667", fillcolor="#fdf7f3"] ;
857 -> 858 ;
859 [label="Longtitude <= 145.048\nmse = 11379796875.0\nsamples = 4\nvalue = 637875.0", fillcolor="#fef8f5"] ;
858 -> 859 ;
860 [label="Lattitude <= -37.887\nmse = 1890500000.0\nsamples = 3\nvalue = 695500.0", fillcolor="#fdf8f3"] ;
859 -> 860 ;
861 [label="mse = 0.0\nsamples = 1\nvalue = 740000.0", fillcolor="#fdf7f2"] ;
860 -> 861 ;
862 [label="mse = 1350562500.0\nsamples = 2\nvalue = 673250.0", fillcolor="#fef8f4"] ;
860 -> 862 ;
863 [label="mse = 0.0\nsamples = 1\nvalue = 465000.0", fillcolor="#fefbf8"] ;
859 -> 863 ;
864 [label="Longtitude <= 145.041\nmse = 647760000.0\nsamples = 5\nvalue = 756300.0", fillcolor="#fdf7f2"] ;
858 -> 864 ;
865 [label="Longtitude <= 145.017\nmse = 85562500.0\nsamples = 2\nvalue = 731750.0", fillcolor="#fdf7f2"] ;
864 -> 865 ;
866 [label="mse = 0.0\nsamples = 1\nvalue = 741000.0", fillcolor="#fdf7f2"] ;
865 -> 866 ;
867 [label="mse = 0.0\nsamples = 1\nvalue = 722500.0", fillcolor="#fdf7f3"] ;
865 -> 867 ;
868 [label="Longtitude <= 145.051\nmse = 352888888.889\nsamples = 3\nvalue = 772666.667", fillcolor="#fdf6f1"] ;
864 -> 868 ;
869 [label="mse = 0.0\nsamples = 1\nvalue = 796000.0", fillcolor="#fdf6f1"] ;
868 -> 869 ;
870 [label="Longtitude <= 145.059\nmse = 121000000.0\nsamples = 2\nvalue = 761000.0", fillcolor="#fdf7f2"] ;
868 -> 870 ;
871 [label="mse = 0.0\nsamples = 1\nvalue = 750000.0", fillcolor="#fdf7f2"] ;
870 -> 871 ;
872 [label="mse = 0.0\nsamples = 1\nvalue = 772000.0", fillcolor="#fdf6f2"] ;
870 -> 872 ;
873 [label="Lattitude <= -37.869\nmse = 14893109369.222\nsamples = 104\nvalue = 593435.096", fillcolor="#fef9f6"] ;
857 -> 873 ;
874 [label="Lattitude <= -37.881\nmse = 3940888888.889\nsamples = 9\nvalue = 492500.0", fillcolor="#fefaf8"] ;
873 -> 874 ;
875 [label="Lattitude <= -37.882\nmse = 4389062500.0\nsamples = 2\nvalue = 566250.0", fillcolor="#fef9f6"] ;
874 -> 875 ;
876 [label="mse = 0.0\nsamples = 1\nvalue = 500000.0", fillcolor="#fefaf8"] ;
875 -> 876 ;
877 [label="mse = 0.0\nsamples = 1\nvalue = 632500.0", fillcolor="#fef8f5"] ;
875 -> 877 ;
878 [label="Longtitude <= 144.997\nmse = 1814816326.531\nsamples = 7\nvalue = 471428.571", fillcolor="#fefbf8"] ;
874 -> 878 ;
879 [label="Lattitude <= -37.873\nmse = 256000000.0\nsamples = 2\nvalue = 426000.0", fillcolor="#fefbf9"] ;
878 -> 879 ;
880 [label="mse = 0.0\nsamples = 1\nvalue = 410000.0", fillcolor="#fefcfa"] ;
879 -> 880 ;
881 [label="mse = 0.0\nsamples = 1\nvalue = 442000.0", fillcolor="#fefbf9"] ;
879 -> 881 ;
882 [label="Lattitude <= -37.88\nmse = 1282640000.0\nsamples = 5\nvalue = 489600.0", fillcolor="#fefaf8"] ;
878 -> 882 ;
883 [label="Lattitude <= -37.881\nmse = 756250000.0\nsamples = 2\nvalue = 452500.0", fillcolor="#fefbf9"] ;
882 -> 883 ;
884 [label="mse = 0.0\nsamples = 1\nvalue = 480000.0", fillcolor="#fefbf8"] ;
883 -> 884 ;
885 [label="mse = 0.0\nsamples = 1\nvalue = 425000.0", fillcolor="#fefbf9"] ;
883 -> 885 ;
886 [label="Lattitude <= -37.874\nmse = 104222222.222\nsamples = 3\nvalue = 514333.333", fillcolor="#fefaf7"] ;
882 -> 886 ;
887 [label="Longtitude <= 145.042\nmse = 2250000.0\nsamples = 2\nvalue = 521500.0", fillcolor="#fefaf7"] ;
886 -> 887 ;
888 [label="mse = 0.0\nsamples = 1\nvalue = 520000.0", fillcolor="#fefaf7"] ;
887 -> 888 ;
889 [label="mse = 0.0\nsamples = 1\nvalue = 523000.0", fillcolor="#fefaf7"] ;
887 -> 889 ;
890 [label="mse = 0.0\nsamples = 1\nvalue = 500000.0", fillcolor="#fefaf8"] ;
886 -> 890 ;
891 [label="Lattitude <= -37.857\nmse = 14874082229.917\nsamples = 95\nvalue = 602997.368", fillcolor="#fef9f5"] ;
873 -> 891 ;
892 [label="Longtitude <= 145.043\nmse = 23013645061.728\nsamples = 18\nvalue = 650722.222", fillcolor="#fef8f4"] ;
891 -> 892 ;
893 [label="Lattitude <= -37.86\nmse = 21440625000.0\nsamples = 16\nvalue = 628500.0", fillcolor="#fef8f5"] ;
892 -> 893 ;
894 [label="Longtitude <= 145.016\nmse = 8093472222.222\nsamples = 6\nvalue = 529833.333", fillcolor="#fefaf7"] ;
893 -> 894 ;
895 [label="Lattitude <= -37.864\nmse = 4000000.0\nsamples = 2\nvalue = 418000.0", fillcolor="#fefbf9"] ;
894 -> 895 ;
896 [label="mse = 0.0\nsamples = 1\nvalue = 416000.0", fillcolor="#fefbf9"] ;
895 -> 896 ;
897 [label="mse = 0.0\nsamples = 1\nvalue = 420000.0", fillcolor="#fefbf9"] ;
895 -> 897 ;
898 [label="Lattitude <= -37.868\nmse = 2758187500.0\nsamples = 4\nvalue = 585750.0", fillcolor="#fef9f6"] ;
894 -> 898 ;
899 [label="mse = 0.0\nsamples = 1\nvalue = 665000.0", fillcolor="#fef8f4"] ;
898 -> 899 ;
900 [label="Longtitude <= 145.026\nmse = 886222222.222\nsamples = 3\nvalue = 559333.333", fillcolor="#fef9f6"] ;
898 -> 900 ;
901 [label="mse = 0.0\nsamples = 1\nvalue = 520000.0", fillcolor="#fefaf7"] ;
900 -> 901 ;
902 [label="Lattitude <= -37.866\nmse = 169000000.0\nsamples = 2\nvalue = 579000.0", fillcolor="#fef9f6"] ;
900 -> 902 ;
903 [label="mse = 0.0\nsamples = 1\nvalue = 592000.0", fillcolor="#fef9f6"] ;
902 -> 903 ;
904 [label="mse = 0.0\nsamples = 1\nvalue = 566000.0", fillcolor="#fef9f6"] ;
902 -> 904 ;
905 [label="Lattitude <= -37.859\nmse = 20103210000.0\nsamples = 10\nvalue = 687700.0", fillcolor="#fdf8f3"] ;
893 -> 905 ;
906 [label="Lattitude <= -37.859\nmse = 21600000000.0\nsamples = 4\nvalue = 780000.0", fillcolor="#fdf6f1"] ;
905 -> 906 ;
907 [label="Lattitude <= -37.86\nmse = 3600000000.0\nsamples = 2\nvalue = 680000.0", fillcolor="#fdf8f4"] ;
906 -> 907 ;
908 [label="mse = 0.0\nsamples = 1\nvalue = 740000.0", fillcolor="#fdf7f2"] ;
907 -> 908 ;
909 [label="mse = 0.0\nsamples = 1\nvalue = 620000.0", fillcolor="#fef9f5"] ;
907 -> 909 ;
910 [label="mse = 19600000000.0\nsamples = 2\nvalue = 880000.0", fillcolor="#fdf5ef"] ;
906 -> 910 ;
911 [label="Lattitude <= -37.858\nmse = 9639472222.222\nsamples = 6\nvalue = 626166.667", fillcolor="#fef8f5"] ;
905 -> 911 ;
912 [label="Lattitude <= -37.859\nmse = 1431687500.0\nsamples = 4\nvalue = 563250.0", fillcolor="#fef9f6"] ;
911 -> 912 ;
913 [label="mse = 0.0\nsamples = 1\nvalue = 598000.0", fillcolor="#fef9f5"] ;
912 -> 913 ;
914 [label="Lattitude <= -37.859\nmse = 1372222222.222\nsamples = 3\nvalue = 551666.667", fillcolor="#fefaf6"] ;
912 -> 914 ;
915 [label="mse = 0.0\nsamples = 1\nvalue = 500000.0", fillcolor="#fefaf8"] ;
914 -> 915 ;
916 [label="Longtitude <= 145.002\nmse = 56250000.0\nsamples = 2\nvalue = 577500.0", fillcolor="#fef9f6"] ;
914 -> 916 ;
917 [label="mse = 0.0\nsamples = 1\nvalue = 585000.0", fillcolor="#fef9f6"] ;
916 -> 917 ;
918 [label="mse = 0.0\nsamples = 1\nvalue = 570000.0", fillcolor="#fef9f6"] ;
916 -> 918 ;
919 [label="Lattitude <= -37.858\nmse = 2304000000.0\nsamples = 2\nvalue = 752000.0", fillcolor="#fdf7f2"] ;
911 -> 919 ;
920 [label="mse = 0.0\nsamples = 1\nvalue = 800000.0", fillcolor="#fdf6f1"] ;
919 -> 920 ;
921 [label="mse = 0.0\nsamples = 1\nvalue = 704000.0", fillcolor="#fdf7f3"] ;
919 -> 921 ;
922 [label="Landsize <= 39.0\nmse = 42250000.0\nsamples = 2\nvalue = 828500.0", fillcolor="#fdf6f0"] ;
892 -> 922 ;
923 [label="mse = 0.0\nsamples = 1\nvalue = 835000.0", fillcolor="#fdf6f0"] ;
922 -> 923 ;
924 [label="mse = 0.0\nsamples = 1\nvalue = 822000.0", fillcolor="#fdf6f0"] ;
922 -> 924 ;
925 [label="Lattitude <= -37.842\nmse = 12314420306.966\nsamples = 77\nvalue = 591840.909", fillcolor="#fef9f6"] ;
891 -> 925 ;
926 [label="Longtitude <= 145.002\nmse = 8357069943.289\nsamples = 23\nvalue = 556130.435", fillcolor="#fef9f6"] ;
925 -> 926 ;
927 [label="Lattitude <= -37.856\nmse = 6387760000.0\nsamples = 5\nvalue = 508800.0", fillcolor="#fefaf7"] ;
926 -> 927 ;
928 [label="mse = 56250000.0\nsamples = 2\nvalue = 592500.0", fillcolor="#fef9f6"] ;
927 -> 928 ;
929 [label="Longtitude <= 145.002\nmse = 2824666666.667\nsamples = 3\nvalue = 453000.0", fillcolor="#fefbf9"] ;
927 -> 929 ;
930 [label="Lattitude <= -37.85\nmse = 240250000.0\nsamples = 2\nvalue = 489500.0", fillcolor="#fefaf8"] ;
929 -> 930 ;
